tree
version=v4
num_class=1
num_tree_per_iteration=1
label_index=0
max_feature_idx=62
objective=lambdarank
feature_names=Column_0 Column_1 Column_2 Column_3 Column_4 Column_5 Column_6 Column_7 Column_8 Column_9 Column_10 Column_11 Column_12 Column_13 Column_14 Column_15 Column_16 Column_17 Column_18 Column_19 Column_20 Column_21 Column_22 Column_23 Column_24 Column_25 Column_26 Column_27 Column_28 Column_29 Column_30 Column_31 Column_32 Column_33 Column_34 Column_35 Column_36 Column_37 Column_38 Column_39 Column_40 Column_41 Column_42 Column_43 Column_44 Column_45 Column_46 Column_47 Column_48 Column_49 Column_50 Column_51 Column_52 Column_53 Column_54 Column_55 Column_56 Column_57 Column_58 Column_59 Column_60 Column_61 Column_62
feature_infos=[8500:7000000] [1864:89239818] [6:159] [0:175000] [0:133.19999999999999] [0:0.90000000000000002] [402.33600000000001:3822.192] [-97:120] [-97:123] [32:123] [-39:38] [0:126] [0:127] [0:136] [0:9.4000000000000004] [0:59] [0:19] [0:15] [0:13] [0:13] [0:4921300] [0:58] [0:19] [0:15] [0:13] [0:13] [0:4921300] [-1:14] [-1:5016.3500000000004] [-1:153.9953638075672] [-1:14] [-1:5016.3500000000004] [-1:153.9953638075672] [-103:111] [-1:1004] [4.8899999999999997:16.015999999999998] [3.8200000000000003:15] [2.6400000000000001:15.490000000000002] [3.3049999999999997:133.62] [402.39999999999998:3893.8999999999992] [21.800000000000001:324.45999999999998] [0.035925925925925944:20.68] [0:20.780000000000001] [0:20.3125] [0:1136.606896551724] [0:34399.859999999993] [-0.18734342160571671:1.5266666666666666] [-3620.9000000000001:183.70000000000005] [0.027445460942997903:139.84673252415627] none none none none none none none none none none none none [1.9028062970568105:12.547570157426421] [0:1]
tree_sizes=1868 1878 1883 1879 1868 1886 1886 1886 1884 1887 1881 1878 1885 1884 1880 1859 1874 1878 1873 1873 1881 1880 1885 1874 1888 1879 1874 1876 1882 1877 1889 1876 1875 1876 1881 1868 1873 1873 1883 1849 1882 1878 1876 1883 1866 1885 1886 1873 1880 1884 1878 1884 1885 1889 1887 1882 1880 1878 1878 1878 1884 1885 1891 1872 1886 1885 1891 1878 1882 1890 1872 1882 1883 1879 1880 1885 1875 1895 1894 1881 1885 1876 1875 1886 1885 1886 1880 1879 1888 1878 1870 1886 1879 1886 1884 1880 1878 1886 1891 1891 1893 1877 1886 1876 1880 1884 1888 1883 1897 1882 1885 1889 1885 1868 1860 1876 1870 1884 1895 1886 1866 1889 1890 1889 1879 1877 1887 1883 1896 1886 1889 1891 1876 1876 1884 1879 1892 1889 1894 1887 1868 1888 1885 1888 1869 1886 1860 1890 1893 1878 1888 1887 1884 1873 1876 1885 1883 1894 1891 1890 1867 1876 1883 1895 1889 1877 1880 1885 1884 1898 1894 1882 1900 1893 1885 1884 1897 1889 1882 1893 1897 1896 1878 1865 1898 1898 1877 1882 1880 1879 1878 1893 1885 1883 1874 1880 1890 1896 1896 1870 1892 1885 1874 1881 1882 1892 1881 1877 1879 1882 1891 1889 1872 1883 1887 1888 1897 1888 1876 1888 1890 1894 1892 1883 1875 1872 1871 1883 1889 1884 1884 1883 1868 1874 1891 1889 1890 1888 1889 1873 1881 1885 1888 1896 1892 1890 1854 1874 1897 1881 1887 1883 1897 1890 1873 1882 1880 1890 1889 1893 1886 1876 1877 1885 1880 1890 1884 1887 1894 1873 1904 1875 1898 1885 1891 1867 1887 1889 1873 1872 1877 1872 1877 1892 1889 1881 1887 1882 1860 1883 1892 1875 1884 1892 1887 1890 1880 1873 1889 1885 1898 1897 1893 1891 1900 1885 1867 1882 1890 1866 1889 1879 1887 1877 1877 1889 1889 1877 1868 1889 1887 1891 1872 1891 1880 1876 1884 1885 1885 1885 1887 1875 1886 1886 1887 1871 1885 1885 1894 1892 1860 1883 1880 1886 1883 1879 1881 1888 1882 1881 1886 1894 1874 1878 1898 1869 1879 1879 1881 1868 1886 1875 1880 1881 1889 1891 1890 1891 1881 1859 1861 1882 1888 1892 1889 1894 1889 1884 1873 1872 1875 1875 1855 1887 1839 1890 1870 1880 1882 1885 1885 1883 1888 1866 1895 1885 1869 1875 1893 1874 1876 1889 1860 1883 1887 1841 1852 1843 1895 1886 1884 1872 1893 1875 1883 1869 1874 1895 1887 1886 1870 1882 1880 1868 1878 1881 1894 1881 1853 1878 1885 1876 1874 1860 1869 1864 1879 1880 1885 1866 1892 1883 1862 1876 1884 1879 1860 1893 1862 1878 1884 1876 1899 1867 1888 1845 1847 1851 1858 1895 1883 1888 1892 1893 1870 1891 1883 1843 1880 1869 1830 1878 1899 1882 1881 1845 1886 1880 1874 1891 1874 1881 1874 1846 1891 1872 1860 1887 1861 1884 1856 1856 1876 1884 1888 1878 1882 1867 1878 1859 1883 1872 1895 1865 1874 1840 1848 1896 1888 1904 1865 1892 1832 1882 1880 1885 1872 1885 1893 1890 1879 1892 1876 1877 1886 1883 1893 1870 1890 1855 1850 1877 1876 1882 1885 1880 1890 1886 1887 1876 1893 1869 1826 1885 1872 1884 1872 1883 1855 1892 1883 1874 1888 1870 1873 1878 1882 1892 1882 1885 1862 1878 1857 1872 1877 1855 1870 1853 1893 1885 1879 1885 1873 1882 1871 1880 1877 1846 1873 1874 1872 1869 1842 1848 1864 1867 1880 1876 1869 1844 1853 1886 1896 1882 1863 1843 1868 1853 1843 1883 1859 1866 1881 1867 1858 1883 1859 1836 1878 1871 1862 1876 1878 1874 1872 1860 1891 1861 1878 1861 1860 1888 1809 1884 1872 1884 1843 1816 1879 1864 1869 1884 1879 1870 1867 1880 1869 1896 1832 1862 1878 1850 1885 1844 1853 1883 1882 1869 1887 1853 1880 1888 1866 1858 1851 1881 1885 1859 1845 1864 1848 1843 1854 1863 1853 1877 1864 1888 1875 1873 1889 1871 1883 1875 1875 1868 1882 1876 1882 1849 1854 1879 1860 1862 1852 1874 1880 1871 1864 1881 1842 1862 1860 1860 1836 1875 1852 1857 1886 1881 1883 1838 1830 1872 1887 1859 1834 1858 1890 1846 1871 1876 1897 1880 1856 1805 1854 1855 1881 1874 1820 1850 1864 1880 1880 1886 1874 1860 1852 1862 1864 1854 1882 1879 1853 1820 1855 1878 1858 1868 1866 1847 1867 1842 1886 1844 1832 1891 1877 1865 1857 1868 1838 1870 1884 1837 1856 1851 1889 1894 1843 1873 1880 1839 1877 1881 1870 1865 1881 1885 1884 1867 1869 1875 1848 1888 1884 1882 1875 1862 1877 1850 1844 1877 1878 1844 1878 1888 1887 1886 1884 1805 1849 1867 1856 1854 1832 1877 1875 1899 1853 1891 1889 1887 1887 1850 1863 1840 1876 1847 1851 1881 1879 1894 1854 1878 1868 1887 1861 1874 1883 1885 1865 1842 1829 1885 1881 1863 1877 1832 1880 1885 1827 1885 1844 1855 1883 1889 1858 1879 1898 1835 1871 1887 1849 1852 1848 1864 1847 1869 1851 1889 1876 1809 1858 1880 1809 1868 1852 1858 1864 1836 1864 1866 1846 1860 1844 1876 1850 1886 1882 1841 1884 1825 1850 1859 1826 1817 1865 1878 1771 1851 1864 1888 1818 1865 1888 1889 1863 1861 1861 1855 1832 1864 1847 1844 1869 1873 1888 1860 1887 1870 1841 1820 1898 1860 1833 1883 1861 1874 1875 1838 1881 1848 1839 1810 1856 1821 1894 1859 1829 1846 1849 1869 1843 1838 1884 1826 1812 1836 1886 1893 1845 1885 1882 1854 1828 1862 1850 1854 1859 1880 1889 1834 1833 1838 1834 1877 1855 1834 1854 1872 1864 1829 1861 1893 1864 1852 1826 1851 1884 1857 1832 1891 1896 1835 1834 1877 1858 1861 1854 1837 1852 1858 1864 1846 1886 1860 1866 1900 1869 1773 1859 1810 1843 1846 1866 1834 1838 1874 1834 1856 1856 1869 1840 1845 1886 1869 1829 1854 1837 1885 1855 1892 1852 1792 1841 1876 1883 1878 1853 1841 1893 1860 1836 1831 1877 1803 1876 1869 1830 1847 1848 1867 1874 1894 1809 1868 1836 1827 1861 1802 1843 1872 1870 1859 1847 1853 1836 1826 1843 1843 1842 1891 1893 1826 1848 1881 1830 1877 1859 1879 1874 1845 1858 1859 1862 1815 1811 1841 1875 1875 1869 1841 1830 1872 1874 1808 1859 1832 1801 1856 1824 1876 1862 1809 1897 1831 1847 1849 1848 1866 1834 1853 1884 1859 1880 1881 1871 1835 1872 1860 1851 1856 1883 1802 1812 1814 1831 1824 1850 1864 1877 1815 1823 1865 1848 1805 1890 1879 1829 1780 1818 1887 1821 1878 1794 1879 1892 1856 1842 1850 1877 1839 1862 1858 1846 1834 1836 1887 1850 1829 1867 1814 1815 1777 1840 1856 1870 1850 1879 1823 1849 1835 1865 1759 1850 1869 1828 1817 1837 1889 1812 1859 1800 1830 1829 1797 1850 1861 1854 1802 1838 1853 1885 1866 1820 1831 1858 1808 1865 1855 1862 1875 1811 1871 1849 1836 1852 1867 1883 1875 1855 1885 1860 1793 1833 1827 1871 1855 1882 1799 1861 1875 1835 1885 1841 1858 1892 1841 1853 1827 1891 1875 1824 1865 1850 1844 1791 1855 1852 1818 1831 1871 1858 1846 1844 1847 1856 1835 1851 1880 1832 1840 1860 1819 1780 1862 1848 1842 1817 1825 1855 1864 1821 1881 1847 1847 1843 1845 1848 1851 1892 1789 1871 1836 1839 1819 1857 1890 1770 1828 1787 1882 1830 1794 1853 1830 1847 1837 1845 1844 1839 1888 1878 1851 1872 1882 1869 1889 1813 1806 1782 1773 1784 1846 1818 1821 1866 1835 1789 1816 1872 1835 1880 1835 1826 1850 1832 1859 1844 1840 1818 1829 1837 1867 1848 1833 1801 1822 1842 1874 1869 1832 1867 1830 1841 1847 1890 1816 1817 1857 1838 1839 1865 1823 1824 1854 1822 1824 1827 1815 1879 1852 1840 1869 1834 1845 1783 1828 1819 1857 1863 1887 1803 1843 1855 1855 1828 1872 1890 1813 1840 1761 1859 1810 1861 1828 1819 1813 1823 1815 1822 1864 1846 1871 1834 1801 1792 1863 1829 1825 1870 1827 1828 1794 1863 1857 1864 1830 1845 1851 1824 1840 1854 1848 1817 1794 1785 1843 1819 1794 1886 1855 1825 1886 1810 1833 1861 1875 1846 1823 1786 1843 1784 1815 1896 1866 1821 1882 1880 1874 1811 1896 1813 1827 1835 1868 1858 1814 1846 1839 1842 1856 1853 1844 1804 1800 1856 1861 1871 1799 1801 1858 1838 1834 1881 1855 1778 1842 1873 1894 1861 1857 1808 1845 1844 1827 1880 1858 1844 1850 1854 1881 1831 1820 1864 1812 1862 1847 1833 1895 1811 1805 1867 1791 1809 1818 1895 1867 1883 1836 1888 1773 1885 1859 1834 1878 1867 1906 1851 1835 1876 1819 1869 1856 1855 1815 1809 1839 1819 1883 1828 1885 1830 1847 1895 1845 1853 1803 1888 1862 1838 1861 1847 1838 1850 1817 1876 1822 1837 1815 1838 1817 1856 1860 1858 1830 1834 1885 1800 1867 1862 1848 1804 1822 1863 1854 1825 1843 1898 1833 1784 1845 1849 1855 1834 1889 1813 1866 1829 1824 1840 1888 1815 1859 1857 1836 1817 1836 1839 1770 1859 1830 1892 1835 1812 1845 1785 1868 1859 1869 1744 1828 1880 1837 1823 1840 1866 1763 1806 1838 1815 1875 1851 1817 1827 1865 1860 1772 1845 1815 1861 1822 1790 1834 1837 1816 1820 1806 1823 1809 1882 1857 1857 1799 1870 1883 1856 1856 1863 1862 1865 1814 1854 1858 1772 1841 1829 1831 1816 1887 1844 1833 1885 1824 1907 1837 1838 1867 1794 1824 1855 1866 1815 1871 1831 1862 1777 1837 1856 1785 1801 1817 1866 1857 1819 1755 1817 1831 1829 1845 1823 1880 1858 1860 1832 1869 1821 1814 1840 1817 1806 1854 1863 1801 1869 1832 1869 1793 1736 1833 1846 1843 1884 1886 1854 1812 1851 1856 1839 1899 1840 1887 1827 1799 1868 1850 1836 1791 1821 1851 1744 1810 1824 1815 1889 1803 1818 1854 1900 1865 1870 1855 1823 1865 1830 1843 1868 1872 1885 1867 1867 1825 1858 1860 1853 1835 1884 1869 1825 1811 1854 1798 1836 1872 1793 1848 1836 1836 1776 1816 1896 1861 1865 1838 1829 1825 1877 1844 1835 1835 1839 1857 1815 1801 1786 1850 1806 1845 1798 1870 1830 1875 1829 1847 1788 1827 1838 1838 1799 1859 1880 1804 1794 1789 1831 1816 1915 1815 1813 1849 1843 1874 1842 1836 1807 1817 1803 1835 1768 1853 1851 1854 1817 1769 1816 1829 1869 1867 1919 1871 1843 1832 1839 1849 1816 1763 1834 1809 1872 1770 1740 1776 1887 1849 1787 1860 1835 1865 1831 1830 1806 1850 1824 1837 1796 1900 1887 1875 1798 1797 1868 1858 1757 1807 1820 1894 1840 1849 1858 1842 1820 1817 1844 1764 1872 1834 1855 1810 1874 1862 1860 1847 1870 1805 1822 1830 1811 1827 1839 1830 1881 1798 1795 1807 1795 1859 1817 1826 1783 1866 1794 1834 1857 1880 1866 1845 1859 1834 1834 1861 1843 1788 1787 1839 1814 1779 1887 1819 1802 1831 1795 1821 1838 1856 1864 1741 1867 1885 1766 1859 1760 1829 1846 1854 1791 1867 1836 1881 1834 1819 1839 1850 1827 1807 1824 1769 1863 1835 1843 1827 1870 1844 1840 1808 1798 1805 1796 1853 1840 1792 1820 1826 1837 1808 1826 1837 1894 1807 1905 1878 1836 1771 1778 1883 1821 1829 1790 1806 1774 1799 1863 1796 1869 1830 1850 1840 1838 1788 1811 1767 1844 1855 1828 1825 1827 1830 1851 1873 1801 1782 1842 1837 1803 1846 1823 1831 1862 1822 1876 1809 1879 1742 1850 1741 1798 1839 1873 1818 1804 1813 1787 1820 1789 1823 1891 1891 1826 1849 1869 1830 1810 1760 1778 1816 1790 1803 1786 1821 1792 1864 1804 1825 1855 1814 1832 1779 1891 1811 1818 1827 1822 1855 1848 1790 1812 1771 1754 1830 1829 1707 1792 1812 1831 1865 1829 1856 1826 1826 1842 1909 1798 1853 1799 1876 1825 1803 1879 1836 1850 1873 1832 1809 1800 1869 1816 1774 1800 1825 1850 1807 1861 1798 1808 1834 1809 1883 1800 1861 1799 1794 1828 1816 1819 1870 1869 1814 1763 1863 1828 1799 1866 1830 1804 1861 1858 1812 1870 1820 1845 1845 1828 1837 1881 1841 1803 1791 1815 1841 1847 1873 1819 1830 1837 1845 1779 1783 1774 1829 1784 1905 1863 1815 1830 1844 1869 1805 1780 1860 1883 1838 1836 1804 1823 1905 1871 1879 1877 1802 1783 1799 1880 1846 1797 1852 1805 1803 1842 1825 1816 1830 1786 1790 1782 1797 1783 1726 1799 1783 1856 1822 1762 1873 1772 1844 1805 1794 1853 1800 1815 1809 1817 1730 1774 1873 1762 1768 1864 1735 1807 1833 1829 1852 1750 1782 1779 1774 1807 1807 1859 1828 1740 1887 1795 1834 1773 1800 1794 1810 1747 1832 1868 1744 1865 1779 1846 1799 1836 1834 1840 1827 1790 1803 1844 1840 1885 1800 1838 1842 1774 1803 1838 1905 1789 1783 1854 1793 1828 1822 1836 1833 1889 1721 1854 1820 1783 1865 1830 1824 1903 1839 1814

Tree=0
num_leaves=16
num_cat=0
split_feature=33 5 35 5 33 33 35 33 5 5 5 5 33 33 5
split_gain=9585.52 7526.98 1546.29 1535.95 1273.72 865.547 815.294 804.376 551.96 482.804 436.139 341.903 300.303 283.546 213.875
threshold=-5.4999999999999991 0.12000000000000001 6.5155000000000021 0.19000000000000003 1.5000000000000002 5.5000000000000009 6.5090000000000012 -14.499999999999998 0.055000000000000007 0.21000000000000005 0.21000000000000005 0.070000000000000021 3.5000000000000004 -12.499999999999998 0.23500000000000001
decision_type=2 2 2 2 2 2 2 2 2 2 2 2 2 2 2
left_child=3 2 5 13 6 11 9 -5 -7 -3 -6 -2 -4 -1 -8
right_child=1 4 12 7 10 8 14 -9 -10 -11 -12 -13 -14 -15 -16
leaf_value=-0.23817499351955065 -0.1223492126522355 0.0379875871393279 -0.18508031832461738 -0.17052378093205062 0.11406664843408165 -0.06334891261526554 -0.083212205523196192 0.00030356040006795649 0.065068221762262984 0.13213777871243351 0.18183393902124054 -0.031766480021329757 -0.089824822778220417 -0.16322687979253611 0.036296309123983614
leaf_weight=1994.5824270471931 1207.1056289146654 1787.5346565805376 1339.0834034867585 771.44304377585649 3305.1051935907453 802.81195315346122 718.41430767439306 1377.5985427387059 2383.7013107612729 2179.0795826427639 3586.2559217903763 1987.4734603501856 1089.3724285177886 1721.2546877674758 427.58566347695887
leaf_count=31956 18269 20724 20940 11392 32246 11298 9764 16937 26339 20353 29089 26119 15164 26278 4816
internal_value=0 0.0426761 -0.0514279 -0.151366 0.111746 -0.0167451 0.0609812 -0.0610195 0.0326657 0.0897629 0.149374 -0.0660632 -0.142462 -0.20355 -0.0385248
internal_weight=0 20813.5 8809.55 5864.88 12004 6381.09 5112.61 2149.04 3186.51 3966.61 6891.36 3194.58 2428.46 3715.84 1146
internal_count=321684 235121 118129 86563 116992 82025 55657 28329 37637 41077 61335 44388 36104 58234 14580
is_linear=0
shrinkage=0.134074


Tree=1
num_leaves=16
num_cat=0
split_feature=44 5 33 44 33 5 44 33 5 10 5 33 44 33 5
split_gain=16966.4 6099.74 2720.22 2471.79 2253.78 1831.98 1395.12 1053.57 910.99 852.214 721.434 696.192 653.243 599.568 430.706
threshold=15.032546296296299 0.15500000000000005 5.5000000000000009 14.328834841628963 9.5000000000000018 0.31000000000000005 15.820540935672517 -1.4999999999999998 0.27000000000000007 -1.0000000180025095e-35 0.070000000000000021 -8.4999999999999982 15.647550000000004 -1.4999999999999998 0.085000000000000006
decision_type=2 2 2 2 2 2 2 2 2 2 2 2 2 2 2
left_child=3 4 5 -1 7 6 -3 -2 11 -9 -6 -5 -4 -8 -13
right_child=1 2 12 8 10 -7 13 9 -10 -11 -12 14 -14 -15 -16
leaf_value=-0.17546758030849896 -0.11066988748361752 -0.02545218387204173 0.065406895938551049 -0.16875229336236533 -0.028768295428332397 0.094191466987369285 0.00075059016955468733 -0.071827608120199157 -0.0074051942483457254 0.0021324556831093348 0.053808526578486983 -0.12732529283195601 0.12096025477187633 0.067004476831940982 -0.060455233395975916
leaf_weight=6571.9011176619679 4172.2249590456486 8872.9229301214218 5669.7401458919048 1818.7138643711805 2655.0771952569485 6937.2149507850409 3628.0195106491446 5169.9750736132264 2817.2159717008471 6102.3149926140904 6683.8567370772362 2341.6072263158858 11673.519172668457 7619.2226501479745 6719.607819814235
leaf_count=41782 32683 25787 9588 15190 13937 13405 12344 28665 7246 26858 19273 16696 18650 15148 24432
internal_value=0 0.0316156 0.0613587 -0.107863 -0.021666 0.0347806 0.0142862 -0.0531074 -0.0754059 -0.031782 0.0303182 -0.093 0.102812 0.045646 -0.077763
internal_weight=0 69184.1 44400.6 20269 24783.4 27057.4 20120.2 15444.5 13697.1 11272.3 9338.93 10879.9 17343.3 11247.2 9061.22
internal_count=321684 216338 94922 105346 121416 66684 53279 88206 63564 55523 33210 56318 28238 27492 41128
is_linear=0
shrinkage=0.134074


Tree=2
num_leaves=16
num_cat=0
split_feature=44 33 33 10 44 38 38 38 33 8 10 38 8 33 9
split_gain=11625.4 2684.48 2381.53 1687.56 1431.33 754.128 623.133 580.385 482.582 414.859 337.255 316.89 281.817 273.629 266.771
threshold=15.373390804597703 -8.4999999999999982 -2.4999999999999996 1.0000000180025095e-35 14.64113247863248 6.3608333333333347 6.220833333333335 6.417083333333335 -10.499999999999998 74.500000000000014 2.5000000000000004 6.6206250000000013 84.500000000000014 13.500000000000002 86.500000000000014
decision_type=2 2 2 2 2 2 2 2 2 2 2 2 2 2 2
left_child=1 -1 8 5 11 14 -5 9 -2 -6 -10 -3 -7 -8 -4
right_child=2 4 3 6 7 12 13 -9 10 -11 -12 -13 -14 -15 -16
leaf_value=-0.15702528618410391 -0.085103192068454736 -0.084486062228776401 0.056154195631189792 0.095782462225796908 0.035174349713532622 -0.00028390261463191627 0.04208848768103262 -0.058985553362471278 -0.040254079482096687 -0.026095655391240712 0.02435400264736657 -0.15071801123051862 -0.064212518897987708 0.090654634703413506 0.012048691720804574
leaf_weight=5205.4061688184738 2034.2633450068533 4227.7789048645645 7038.233178243041 12163.597743153572 2889.1859487649053 4531.4214135557413 9479.1504635810852 6602.5603876113892 3022.8104707151651 6347.3947101477534 2791.5363284759223 1890.934401512146 1707.1913498491049 2683.4587622880936 3806.8536077290773
leaf_count=46554 14573 23478 23440 30461 10367 17483 27379 29889 17542 26513 11733 13051 7955 6283 14948
internal_value=0 -0.0704562 0.0387929 0.0516283 -0.0499213 0.0193193 0.0743111 -0.0286312 -0.0289095 -0.00691543 -0.00921544 -0.104998 -0.0178058 0.0528211 0.0406863
internal_weight=0 27163.3 49258.5 41409.9 21957.9 17083.7 24326.2 15839.1 7848.61 9236.58 5814.35 6118.71 6238.61 12162.6 10845.1
internal_count=321649 149852 171797 127949 103298 63826 64123 66769 43848 36880 29275 36529 25438 33662 38388
is_linear=0
shrinkage=0.134074


Tree=3
num_leaves=16
num_cat=0
split_feature=44 5 5 33 33 5 33 44 33 44 38 5 44 41 5
split_gain=8351.82 2845.71 2658.26 1350.58 1219.89 1105.81 938.077 589.573 569.584 495.808 435.55 361.104 311.859 302.935 288.277
threshold=15.546726190476191 0.10500000000000002 0.15500000000000005 -1.0000000180025095e-35 6.5000000000000009 0.27000000000000007 -1.4999999999999998 14.72479130434783 -1.4999999999999998 14.697211111111111 6.3766666666666678 0.070000000000000021 16.230185185185189 16.404037037037043 0.27000000000000007
decision_type=2 2 2 2 2 2 2 2 2 2 2 2 2 2 2
left_child=2 8 4 7 9 6 -3 -4 -2 -1 -8 -6 -7 -10 -5
right_child=1 5 3 14 11 12 10 -9 13 -11 -12 -13 -14 -15 -16
leaf_value=-0.16416539695026802 -0.12118361830840119 -0.021085985231162795 -0.10639481198207744 0.0025931861018093755 -0.094096425163360142 0.074084391773252989 0.065570363293498371 -0.029613783066834685 -0.041213739140884768 -0.099705257069174449 0.01978001419873017 -0.018123304346134919 0.12293086726945512 0.014090698798458191 0.054641511981614488
leaf_weight=3636.8591255298816 1079.1829244531691 3609.699266847223 2736.1119768172503 5361.2803558409214 1691.176263615489 5287.7559830099344 14061.099889736623 5261.0310401916504 4023.5346603430808 5295.2743244171143 5097.2362440824509 3370.9786234200001 4272.3684616088867 3187.7851065397263 2977.5375491976738
leaf_count=39228 12055 21895 18621 15748 11985 12490 37112 24282 23488 43388 15363 13870 9132 16106 6886
internal_value=0 0.0396902 -0.0532922 -0.0165436 -0.0961764 0.0576624 0.0415814 -0.0559098 -0.0303744 -0.125982 0.0533957 -0.0435439 0.0959382 -0.0167511 0.0211975
internal_weight=0 40618.7 30330.2 16336 13994.3 32328.2 22768 7997.14 8290.5 8932.13 19158.3 5062.15 9560.12 7211.32 8338.82
internal_count=321649 147641 174008 65537 108471 95992 74370 42903 51649 82616 52475 25855 21622 39594 22634
is_linear=0
shrinkage=0.134074


Tree=4
num_leaves=16
num_cat=0
split_feature=44 5 44 44 33 5 33 33 38 33 5 5 38 35 5
split_gain=6679.85 2455.05 1529.67 1279.1 941.533 720.651 517.706 496.227 451.98 450.766 303.247 285.047 283.453 252.145 241.78
threshold=15.175092592592597 0.085000000000000006 16.12959166666667 14.138441295546562 3.5000000000000004 0.10500000000000002 3.5000000000000004 10.500000000000002 6.3170833333333354 4.5000000000000009 0.23500000000000001 0.34500000000000003 6.1910000000000016 6.4755000000000011 0.31000000000000005
decision_type=2 2 2 2 2 2 2 2 2 2 2 2 2 2 2
left_child=3 7 4 13 8 -5 12 -2 -3 11 -6 -7 -4 -1 -8
right_child=1 2 6 5 10 9 14 -9 -10 -11 -12 -13 -14 -15 -16
leaf_value=-0.015964818908945688 -0.07599578099272726 0.015956428724484016 0.071365308887669496 -0.10412076965208016 0.028049132990686999 -0.066856602852109634 0.083761902545006275 -0.0035244703353949978 -0.035619500460339945 0.0028365093098737647 0.073275822205279437 0.020933135229016991 0.022007517636324695 -0.15950944933488206 0.15139611244314691
leaf_weight=240.04050475498661 4274.9185855090618 6154.1277057901025 4004.8658445999026 3808.2851225808263 7926.0130092278123 5705.5680211950094 7374.9250393137336 2823.6400576680899 6058.329749584198 3544.0897323098034 4027.5588782131672 749.70489002764225 4399.4151249527931 2946.9050602912903 1098.7319298237562
leaf_count=1612 39274 26182 14177 38763 24077 37977 19486 15955 29756 11989 9097 2825 18318 29989 2195
internal_value=0 0.0255997 0.0381927 -0.0721715 0.0165538 -0.054478 0.0691653 -0.0471906 -0.00962026 -0.0355497 0.0433031 -0.0566402 0.0455487 -0.148745 0.092565
internal_weight=0 48142.5 41044 16994.6 24166 13807.6 16877.9 7098.56 12212.5 9999.36 11953.6 6455.27 8404.28 3186.95 8473.66
internal_count=321672 198517 143288 123155 89112 91554 54176 55229 55938 52791 33174 40802 32495 31601 21681
is_linear=0
shrinkage=0.134074


Tree=5
num_leaves=16
num_cat=0
split_feature=44 44 5 5 33 33 33 33 33 5 33 5 44 10 33
split_gain=5479.2 2128.3 1086.07 983.342 635.773 526.271 471.319 470.528 414.117 382.629 286.988 282.712 287.579 239.241 221.823
threshold=15.704082491582493 14.790606617647061 0.17500000000000002 0.17500000000000002 7.5000000000000009 -3.4999999999999996 -16.499999999999996 8.5000000000000018 -8.4999999999999982 0.085000000000000006 -3.4999999999999996 0.34500000000000003 16.553798076923083 -3.4999999999999996 -3.4999999999999996
decision_type=2 2 2 2 2 2 2 2 2 2 2 2 2 2 2
left_child=1 6 4 7 10 -5 -1 14 -4 -8 -2 12 -10 -6 -3
right_child=2 3 8 5 13 -7 9 -9 11 -11 -12 -13 -14 -15 -16
leaf_value=-0.16682283035058407 -0.073188337547623869 -0.11341860114006261 -0.016838199613093654 -0.045693188191645938 -0.0049751660976219527 0.024617042924868212 -0.13526543861520612 -0.012086740631545209 0.047181525256289415 -0.064321060960819063 -0.0030392956752944055 0.11176664742651557 0.088462513083173322 0.057951194121222592 -0.055705571358139847
leaf_weight=1435.7967302054167 1267.1401188224554 1609.0144673213363 1111.8576675653458 2437.2255463376641 1408.7497338280082 8882.257737994194 1844.2845979975536 4110.128047388047 9448.8465681746602 5348.2089900225401 6071.7409876585007 2254.3879306912422 4490.5304546356201 4687.9442314952612 4771.1426488347352
leaf_count=20766 15194 20603 5891 14290 7699 27831 23219 19608 26344 34571 36242 5441 11433 17812 34728
internal_value=0 -0.040241 0.0400061 -0.0179328 0.0113927 0.00946462 -0.0966056 -0.0475052 0.0622116 -0.0825477 -0.0151772 0.0676474 0.0604949 0.0433928 -0.0702967
internal_weight=0 30438.1 30741.2 21809.8 13435.6 11319.5 8628.29 10490.3 17305.6 7192.49 7338.88 16193.8 13939.4 6096.69 6380.16
internal_count=321672 195616 126056 117060 76947 42121 78556 74939 49109 57790 51436 43218 37777 25511 55331
is_linear=0
shrinkage=0.134074


Tree=6
num_leaves=16
num_cat=0
split_feature=44 38 44 5 44 33 5 33 5 33 38 35 33 41 44
split_gain=4681.73 1493.44 915.128 756.176 516.211 504.997 418.503 333.506 297.333 305.796 224.302 222.375 220.695 210.778 196.991
threshold=15.233771551724137 6.2670833333333347 14.409553571428576 0.095000000000000015 16.270178571428577 1.0000000180025095e-35 0.23500000000000001 -1.4999999999999998 0.085000000000000006 9.5000000000000018 6.4855000000000009 6.395500000000002 -10.499999999999998 16.810178571428576 15.890800000000004
decision_type=2 2 2 2 2 2 2 2 2 2 2 2 2 2 2
left_child=2 4 11 -3 8 12 7 -4 -2 -10 -9 -1 -5 -14 -7
right_child=1 3 6 5 -6 14 -8 10 9 -11 -12 -13 13 -15 -16
leaf_value=-0.0056892912737198055 -0.022348837502705929 -0.050746743985403291 -0.10388960681821859 -0.077491469816417885 0.07265279873923329 0.012563455375070235 -0.0036856734855718791 -0.02435942366679587 0.023238836946678512 0.071439871097168275 -0.078348734478577403 -0.1248594114481644 -0.020368122620770628 0.038871841713321392 0.052981337292601807
leaf_weight=306.25083502847701 1653.6432856321335 4543.8069041855633 2197.9341739080846 902.1848706509918 9008.1309661865234 4322.8325493261218 3486.6410927996039 4032.6797828786075 7444.7897394523025 3477.0037596598268 2114.0026103258133 3825.8154238462448 4567.6062346380204 1411.8854430913925 4368.2896175384521
leaf_count=2186 14051 38630 27703 7686 35028 14128 14670 25747 30724 9849 15895 44645 21710 6068 13078
internal_value=0 0.0236504 -0.0617296 -0.00262591 0.0481452 0.0114096 -0.042735 -0.0590339 0.0305751 0.0386008 -0.0429584 -0.11606 -0.0157101 -0.00635534 0.0328963
internal_weight=0 41700.2 15963.3 20116.6 21583.6 15572.8 11831.3 8344.62 12575.4 10921.8 6146.68 4132.07 6881.68 5979.49 8691.12
internal_count=321798 190952 130846 101300 89652 62670 84015 69345 54624 40573 41642 46831 35464 27778 27206
is_linear=0
shrinkage=0.134074


Tree=7
num_leaves=16
num_cat=0
split_feature=35 44 38 38 5 5 44 33 33 33 5 33 28 33 5
split_gain=4111.51 1242.03 1115.22 507.249 443.741 438.281 345.197 303.231 298.882 212.519 194.083 181.545 178.571 174.5 140.697
threshold=6.3477500000000022 14.711538461538465 6.3008333333333342 6.4608333333333343 0.23500000000000001 0.12000000000000001 13.790926315789479 6.5000000000000009 7.5000000000000009 -12.499999999999998 0.070000000000000021 -1.4999999999999998 9.6166666666666689 -7.4999999999999991 0.17500000000000002
decision_type=2 2 2 2 2 2 2 2 2 2 2 2 2 2 2
left_child=2 6 4 9 7 11 -2 12 13 -3 -11 -4 -1 -7 -8
right_child=1 3 5 -5 -6 8 14 -9 -10 10 -12 -13 -14 -15 -16
leaf_value=0.032685447202796446 -0.15742492989219664 -0.095857896708809301 -0.10037086367887293 -0.063438755450492379 0.07797171581326072 -0.053628695599425409 -0.10053032543280212 0.056849835566873182 0.052007308442293385 -0.05672046296715292 -4.4854768366493045e-05 -0.023569084992353037 -0.012687101632813757 0.0092790296985345369 -0.053744969556239024
leaf_weight=4127.2278918365482 1321.9933748245239 498.46406239364296 656.36490302812308 4512.2080173492432 6774.9010107573122 918.31638174131513 2619.878101579845 6192.5533503815532 2924.9062138386071 1222.5716914823279 9700.2188819348812 3557.7552035478875 2500.0759286880493 5744.4137580338866 2104.3641316965222
leaf_count=22619 18508 6562 10293 31729 19279 7441 34804 23355 8452 12718 46279 25767 17253 22450 14289
internal_value=0 -0.0450267 0.0296416 -0.0253799 0.0502031 0.000439346 -0.096767 0.0355132 0.0162878 -0.0103285 -0.00640478 -0.0355837 0.0155516 0.000582722 -0.0797338
internal_weight=0 21979.7 33396.5 15933.5 19594.8 13801.8 6046.24 12819.9 9587.64 11421.3 10922.8 4214.12 6627.3 6662.73 4724.24
internal_count=321798 164889 156909 97288 82506 74403 67601 63227 38343 65559 58997 36060 39872 29891 49093
is_linear=0
shrinkage=0.134074


Tree=8
num_leaves=16
num_cat=0
split_feature=44 33 38 5 38 5 33 44 44 5 33 37 28 33 41
split_gain=3600.16 1105.36 778.412 691.658 445.029 395.663 282.431 233.512 231.72 208.371 185.597 184.354 177.253 165.033 162.272
threshold=15.62959166666667 -9.4999999999999982 6.1508333333333347 0.085000000000000006 6.2970833333333349 0.23500000000000001 11.500000000000002 14.900178571428574 16.671188235294125 0.070000000000000021 12.500000000000002 5.5912500000000014 21.183333333333341 -8.4999999999999982 16.657947368421059
decision_type=2 2 2 2 2 2 2 2 2 2 2 2 2 2 2
left_child=1 -1 8 10 -5 6 9 -6 11 -4 -3 -2 -8 -11 -9
right_child=2 3 5 4 7 -7 12 14 -10 13 -12 -13 -14 -15 -16
leaf_value=-0.11328544011914793 0.073016112258325147 -0.09723030626806195 -0.067087747288173558 0.011190484965624144 -0.060980185285568318 0.043835269396267099 0.059069486318106407 -0.034218826630719637 0.089221108975097246 -0.074949619610012785 -0.034575039372958936 0.029914023604121733 -0.00063058289970950566 0.0014255578751152633 0.0092533954482311963
leaf_weight=3089.1050002714619 2950.0876989364624 2733.0774155030958 1065.9073979854584 6739.8349450677633 3548.3822855949402 5758.3322106711566 2036.5310987308621 4224.1108417510986 3385.1115112304688 545.51348689943552 1245.8126522600651 4556.1934857368469 1585.6905717849731 7269.6648103632033 2425.4433851242065
leaf_count=48120 11210 37089 13539 31626 25126 18775 7590 21292 12912 6760 10811 20567 7459 37435 11314
internal_value=0 -0.0384234 0.0316874 -0.027356 -0.0155277 0.0147578 0.0013539 -0.033197 0.0600578 -0.0115051 -0.0776584 0.0468784 0.0329093 -0.00390014 -0.0183451
internal_weight=0 24005.8 29153 20916.7 16937.8 18261.6 12503.3 10197.9 10891.4 8881.09 3978.89 7506.28 3622.22 7815.18 6649.55
internal_count=321625 185378 136247 137258 89358 91558 72783 57732 44689 57734 47900 31777 15049 44195 32606
is_linear=0
shrinkage=0.134074


Tree=9
num_leaves=16
num_cat=0
split_feature=44 44 38 38 33 10 41 41 28 5 44 41 5 33 9
split_gain=3180.51 1276.4 567 476.329 324.245 274.123 237.164 233.801 213.193 178.854 168.636 168.512 158.52 141.027 129.615
threshold=15.890800000000004 14.828834841628963 6.3808333333333342 6.087083333333335 -1.0000000180025095e-35 2.5000000000000004 16.762546296296303 16.903178947368428 27.616666666666671 0.19000000000000003 13.914665178571427 16.309636243386247 0.27000000000000007 -1.4999999999999998 88.500000000000014
decision_type=2 2 2 2 2 2 2 2 2 2 2 2 2 2 2
left_child=1 4 7 -2 10 11 9 12 -6 -4 -1 -5 13 -3 -9
right_child=3 2 6 5 8 -7 -8 14 -10 -11 -12 -13 -14 -15 -16
leaf_value=-0.14762331960205216 0.068928025075266977 -0.057703976309809515 -0.070530401531223225 -0.0078679892712968033 -0.016605190109206035 0.045492535036727594 -0.0034646175031242056 0.049798310928852563 -0.091484211931458601 -0.025878991131017163 -0.085795827179038109 0.030981156851204353 0.025818904726515903 -0.0077473805732437466 -5.3357441844907949e-05
leaf_weight=1078.2243832573295 6650.9862115383148 1224.728269812651 3845.1014263778925 4576.6256173327565 1896.4687030678615 6892.7579974457622 2531.1406784057617 2583.9598301704973 1072.7444496154785 2798.8522896617651 3127.7379951477051 3568.4664621353149 2069.3078724369407 5985.0946677727625 1463.4225398246199
leaf_count=19421 26483 13825 34318 28085 11507 28691 15602 12563 10452 12790 41002 18625 7553 31932 8776
internal_value=0 -0.0285025 -0.012793 0.0390425 -0.0777417 0.0258125 -0.038442 0.00485867 -0.0437235 -0.0517462 -0.10171 0.00913937 -0.00685951 -0.016258 0.0317484
internal_weight=0 29676.8 22501.6 21688.8 7175.18 15037.9 9175.09 13326.5 2969.21 6643.95 4205.96 8145.09 9279.13 7209.82 4047.38
internal_count=321625 219741 137359 101884 82382 75401 62710 74649 21959 47108 60423 46710 53310 45757 21339
is_linear=0
shrinkage=0.134074


Tree=10
num_leaves=16
num_cat=0
split_feature=44 44 35 41 33 38 38 38 28 33 10 44 33 9 14
split_gain=2863.87 879.165 594.606 451.625 335.759 318.577 268.938 222.055 207.301 186.961 167.507 165.33 126.222 111.747 108.579
threshold=15.35521904761905 16.230185185185189 6.8070833333333356 16.531589473684217 3.5000000000000004 6.5153571428571437 6.0310000000000015 6.4507142857142874 16.983333333333338 -2.4999999999999996 4.5000000000000009 13.698441295546562 2.5000000000000004 86.500000000000014 4.6500000000000012
decision_type=2 2 2 2 2 2 2 2 2 2 2 2 2 2 2
left_child=2 3 4 5 7 12 -3 -1 -6 -5 13 -4 -2 -8 -11
right_child=1 6 11 9 8 -7 10 -9 -10 14 -12 -13 -14 -15 -16
leaf_value=-0.033486334821020813 -0.020150464883258636 0.079430993226021138 -0.15723639946641954 -0.020653847667634846 0.020256353621258986 -0.058709985813084793 0.039433765972441706 -0.080224244826833171 -0.032148919730937364 0.045987170005080714 0.059898301635206631 -0.08337312999233823 0.011552742055688564 0.003963904526063395 0.012628504270235014
leaf_weight=4183.3756772845518 4041.3114948421717 3616.4593305587769 766.99370565265417 1290.6490082331002 2307.4753579199314 2254.5359833240509 3642.4923595264554 3266.4360988140106 3285.1068019866943 5058.6984875015914 3623.1645068228245 1955.8863411918283 5108.3495070785284 2857.1282641515136 2703.8274672627449
leaf_count=39500 28000 13810 14569 10812 10678 15234 18434 38370 21743 21459 14347 22468 22885 17253 12085
internal_value=0 0.0217886 -0.0472809 0.00416388 -0.0353638 -0.0135778 0.04802 -0.0540043 -0.0105053 0.0265251 0.0367786 -0.10428 -0.00243776 0.0238638 0.0343869
internal_weight=0 34196.6 15765.3 20457.4 13042.4 11404.2 13739.2 7449.81 5592.58 9053.17 10122.8 2722.88 9149.66 6499.62 7762.53
internal_count=321647 174319 147328 110475 110291 66119 63844 77870 32421 44356 50034 37037 50885 35687 33544
is_linear=0
shrinkage=0.134074


Tree=11
num_leaves=16
num_cat=0
split_feature=35 38 44 44 38 38 37 9 14 44 37 9 44 47 9
split_gain=2593.24 839.91 680.967 306.56 276.164 274.657 194.748 184.498 169.795 159.532 136.978 129.235 113.689 109.492 92.2234
threshold=6.372250000000002 6.2355000000000018 14.500178571428576 17.026939799331107 6.4855000000000009 6.6610000000000005 5.4212500000000015 86.500000000000014 5.1500000000000012 16.2571130952381 5.4641666666666682 80.500000000000014 13.988038461538464 -1304.8499999999997 73.500000000000014
decision_type=2 2 2 2 2 2 2 2 2 2 2 2 2 2 2
left_child=1 3 12 8 11 7 14 10 -1 -9 -3 -4 -2 -13 -7
right_child=2 5 4 -5 -6 6 -8 9 -10 -11 -12 13 -14 -15 -16
leaf_value=0.04835310507916335 -0.12819093049753721 0.045309662707370482 -0.002544394764124807 0.093686359252407106 -0.059883429506980661 0.040122286314152537 -0.075712644165397205 -0.027010359931246324 0.015414173407850914 0.01810000001563691 0.0086406423827413027 -0.021734439600437659 -0.076597609770963498 -0.068658536344024759 -0.029010108839169706
leaf_weight=9011.6650668184739 1269.1117133125663 3059.9662948157638 5219.2200767183676 2064.2003173828125 3754.2031869888306 539.50874690338969 1256.3249960541725 3407.1318535897881 4109.7313634306192 2398.7986640930176 4585.7503280043602 3854.3667771369219 2023.2395324707031 1169.5800573667511 965.07954325154424
leaf_count=40474 24508 15472 33385 8029 33161 2880 9311 22748 20499 13672 26175 27119 26350 11108 6756
internal_value=0 0.0229683 -0.0416892 0.0456252 -0.0287677 0.00173728 -0.0367639 0.00965097 0.0380478 -0.00835165 0.0233367 -0.0173464 -0.0965594 -0.0326955 -0.00412894
internal_weight=0 31398.2 17289.7 15185.6 13997.4 16212.6 2760.91 13451.6 13121.4 5805.93 7645.72 10243.2 3292.35 5023.95 1504.59
internal_count=321647 166016 155631 69002 104773 97014 18947 78067 60973 36420 41647 71612 50858 38227 9636
is_linear=0
shrinkage=0.134074


Tree=12
num_leaves=16
num_cat=0
split_feature=35 44 38 44 38 33 41 10 41 33 8 44 28 38 1
split_gain=2411.05 844.623 629.539 303.567 278.243 216.561 164.565 141.498 141.198 131.196 129.672 118.033 109.013 102.14 96.4034
threshold=6.2777500000000019 14.966282894736846 6.4406250000000016 16.572290209790214 6.4035416666666682 -12.499999999999998 16.309636243386247 1.0000000180025095e-35 16.967543103448282 13.500000000000002 85.500000000000014 14.022206477732794 19.683333333333341 5.885833333333335 98093.000000000015
decision_type=2 2 2 2 2 2 2 2 2 2 2 2 2 2 2
left_child=2 5 3 6 9 -2 -1 11 -4 12 -8 -7 -3 -5 -6
right_child=1 4 8 13 14 7 10 -9 -10 -11 -12 -13 -14 -15 -16
leaf_value=0.0085559654354047526 -0.12165121505331876 -0.0011094998578583145 -0.022692871858508889 0.10501743976126282 -0.024388051237456469 -0.12942618503726808 0.059417545591660431 -0.032372909739523385 0.026815363208184756 0.027441973650731259 0.024767287230587697 -0.064210293641155519 -0.040291401872712927 0.056753953228870203 -0.062647889430901563
leaf_weight=4819.076762612327 1162.2936172261834 6433.7999631278217 4259.8666381835938 924.23832416534424 3054.1503171920776 592.01398304197937 3479.8669400811195 2353.6616270458326 1365.1184673309326 2293.9089640267193 4437.8469042181969 3376.4318861961365 1593.4313325881958 5732.6709222793579 1952.2347545623779
leaf_count=26315 28646 39153 27964 3334 20342 10213 15412 19299 7621 10478 22567 35148 11991 26491 16738
internal_value=0 -0.031448 0.0288187 0.0402734 -0.0134086 -0.0683678 0.0281253 -0.0585327 -0.0106533 -0.000814382 0.0400178 -0.0740038 -0.0089069 0.0634897 -0.0393424
internal_weight=0 22811.9 25018.7 19393.7 15327.5 7484.4 12736.8 6322.11 5624.99 10321.1 7917.71 3968.45 8027.23 6656.91 5006.39
internal_count=321712 192008 129704 94119 98702 93306 64294 64660 35585 61622 37979 45361 51144 29825 37080
is_linear=0
shrinkage=0.134074


Tree=13
num_leaves=16
num_cat=0
split_feature=44 35 38 38 44 5 44 38 5 33 37 33 33 33 38
split_gain=2191.68 864.254 400.655 341.816 233.911 184.441 152.268 144.592 125.764 111.247 109.291 106.301 100.866 98.8923 89.5445
threshold=15.932390476190477 6.5910000000000002 6.3336666666666677 6.1855000000000011 14.21444444444445 0.17500000000000002 17.108775000000005 6.5708333333333355 0.12000000000000001 -1.4999999999999998 5.4970833333333351 -4.4999999999999991 3.5000000000000004 -1.0000000180025095e-35 6.1855000000000011
decision_type=2 2 2 2 2 2 2 2 2 2 2 2 2 2 2
left_child=1 2 8 6 -3 11 12 9 -1 -5 -11 -4 -2 -7 -6
right_child=3 4 5 7 14 13 -8 -9 -10 10 -12 -13 -14 -15 -16
leaf_value=-0.015679944276507065 0.028853571270183311 -0.11140231012053667 -0.097513942586123059 -0.0064003878124232784 -0.018039420870376202 -0.03145966410608389 0.092380658918405606 -0.016643970916538398 0.016672136846378506 0.054021920045581186 0.018961536572654071 -0.040286273927546294 0.059505276164162804 0.0058604317476482499 -0.061587206494274058
leaf_weight=3023.099043465103 3598.8227141052485 1585.2818966954947 677.24994302960113 1640.8709161132574 1089.6607981547713 2425.5159890730865 1484.8895263671875 1833.1169009208679 7536.5667239166796 2604.1764359027147 4183.1714800000191 4401.5156474220566 4225.2684328407049 2682.7588710482232 3999.3758971691132
leaf_count=27901 18405 32616 14929 13180 9135 16510 5667 11158 35592 11490 20821 38001 16082 10507 39718
internal_value=0 -0.0244019 -0.0108928 0.0343323 -0.066367 -0.0298632 0.052941 0.0174349 0.00739799 0.0248625 0.0324381 -0.0479614 0.0454282 -0.0118393 -0.0522927
internal_weight=0 27421 20746.7 19570.3 6674.32 10187 9308.98 10261.3 10559.7 8428.22 6787.35 5078.77 7824.09 5108.27 5089.04
internal_count=321712 224909 143440 96803 81469 79947 40154 56649 63493 45491 32311 52930 34487 27017 48853
is_linear=0
shrinkage=0.134074


Tree=14
num_leaves=16
num_cat=0
split_feature=35 38 38 44 35 10 35 8 38 8 38 1 44 1 33
split_gain=2047.41 741.828 439.438 280.092 226.273 182.998 162.451 129.891 128.287 115.203 96.103 101.229 91.5587 89.0325 85.0551
threshold=6.4155000000000006 6.2010000000000014 6.5512500000000022 16.387264957264964 6.1608333333333345 -1.0000000180025095e-35 6.7129166666666675 88.500000000000014 5.9558333333333353 71.500000000000014 6.1910000000000016 81704.000000000015 13.523009049773757 139848.00000000003 -1.4999999999999998
decision_type=2 2 2 2 2 2 2 2 2 2 2 2 2 2 2
left_child=1 4 6 5 8 9 10 14 -1 -3 -2 -12 -4 -10 -7
right_child=2 3 12 -5 -6 7 -8 -9 13 -11 11 -13 -14 -15 -16
leaf_value=0.082997372904376879 0.0021839892087824075 0.0034388629529289731 -0.15256508628434381 0.029799413621044248 0.021159461859117962 -0.019531176401934251 -0.061430189348670089 -0.017601248209716664 0.067588586319470373 -0.040326297293722863 -0.0075240564222177975 -0.044727909047037287 -0.077619683374765824 0.032925042312509305 0.023820285584443386
leaf_weight=2334.4045194501523 2360.3286566734314 1501.406442688778 328.18599639832973 4594.5510687604547 5516.1184577941895 986.69147572398651 2232.4386825561523 3276.2074546441436 2116.488983631134 3815.5020620003343 2179.387521982193 3348.0946133136749 3146.315425530076 3671.2323679924011 4549.3285603531403
leaf_count=9249 16668 9804 9008 25596 28726 8233 28895 20906 8713 32659 15670 30796 38089 17605 21044
internal_value=0 0.018373 -0.0436287 0.00104132 0.0421565 -0.00830338 -0.0294804 0.00353695 0.0563967 -0.0279469 -0.020415 -0.0300855 -0.0847809 0.0456327 0.0160694
internal_weight=0 32361.9 13594.8 18723.7 13638.2 14129.1 10120.2 8812.23 8122.13 5316.91 7887.81 5527.48 3474.5 5787.72 5536.02
internal_count=321661 182535 139126 118242 64293 92646 92029 50183 35567 42463 63134 46466 47097 26318 29277
is_linear=0
shrinkage=0.134074


Tree=15
num_leaves=16
num_cat=0
split_feature=35 38 38 35 44 38 5 8 37 44 38 37 44 47 40
split_gain=1907.64 655.95 457.741 268.205 233.05 202.482 144.259 125.407 119.025 112.221 109.614 107.866 107.29 95.1587 117.115
threshold=6.2410000000000023 6.4466666666666681 6.1208333333333345 6.4855000000000009 14.5512 6.5708333333333355 0.055000000000000007 80.500000000000014 5.3870833333333357 16.787171428571433 6.6355000000000013 5.3641666666666685 16.96226495726496 -1296.3499999999997 71.79500000000003
decision_type=2 2 2 2 2 2 2 2 2 2 2 2 2 2 2
left_child=2 3 12 7 -3 6 -4 -2 -6 -8 -10 -7 -1 -9 -15
right_child=1 4 5 -5 8 11 9 13 10 -11 -12 -13 -14 14 -16
leaf_value=0.047146428856202807 0.020418216224370626 -0.099056395627984309 -0.043912611688026834 -0.033466314318402017 -0.0067366448039199531 0.013557016478515441 0.01891740445595776 0.0018194717880276839 -0.039154623075462046 0.052216087966501706 -0.081666759935460048 -0.04097656065257068 0.08599369037534528 2.119132594441108e-05 -0.068094163365405816
leaf_weight=5598.2423788832966 4210.7714495658875 1895.2351022735238 558.65398290101439 5779.3246669769287 1180.751800917089 1108.6792497038841 8893.0266568427905 3811.1101397573948 3073.0898568630219 2296.0335812568665 1710.3334505558014 1571.3962460160255 1673.9440460205078 865.39476906694472 944.59656355343759
leaf_count=25326 23654 36539 7641 55246 9833 6830 47160 23473 27069 11174 16112 11280 6352 5620 8352
internal_value=0 -0.026461 0.0286856 -0.0105463 -0.058051 0.0148473 0.0224381 0.00291638 -0.0449841 0.0257658 -0.054396 -0.018376 0.0561171 -0.0101742 -0.0354802
internal_weight=0 23470.6 21700 15611.2 7859.41 14427.8 11747.7 9831.87 5964.18 11189.1 4783.42 2680.08 7272.19 5621.1 1809.99
internal_count=321661 205898 115763 116345 89553 84085 65975 61099 53014 58334 43181 18110 31678 37445 13972
is_linear=0
shrinkage=0.134074


Tree=16
num_leaves=16
num_cat=0
split_feature=35 38 38 44 35 33 38 41 44 41 9 33 44 5 10
split_gain=1756.15 514.282 475.663 250.97 244.415 122.268 114.39 113.839 112.583 109.754 104.461 103.276 90.4123 79.6427 72.2572
threshold=6.3145000000000016 6.4006250000000016 6.5455000000000014 16.553798076923083 6.6208333333333345 -7.4999999999999991 6.1355000000000013 16.851558704453449 14.328834841628963 16.030889328063246 80.500000000000014 -4.4999999999999991 17.317320512820519 0.03500000000000001 6.5000000000000009
decision_type=2 2 2 2 2 2 2 2 2 2 2 2 2 2 2
left_child=1 3 4 5 6 -1 -2 13 -4 -3 -8 -11 -5 -7 -12
right_child=2 9 8 12 -6 7 10 -9 -10 11 14 -13 -14 -15 -16
leaf_value=-0.03103002190377438 0.014777968638306074 -0.032483605577913514 -0.11168518892356663 0.047926576364889749 -0.050123561945221461 -0.093020779615373764 -0.0019767264774041898 0.046109571685798247 -0.058918318188546474 -0.050801536135838869 -0.041914749805900063 0.010864177833856212 0.088970480517000697 0.019111567877850642 0.0006792367029372987
leaf_weight=707.38734030909836 2624.04625415802 2322.7712106704712 940.27896424010396 5198.9419097900391 3550.1312026977539 114.02192992554046 4014.6827001641504 3613.345624089241 3351.128602784127 554.73749940760899 3198.0196516760625 3995.6197221957846 1198.6289978027344 8160.7175110448152 915.12927123717964
leaf_count=8043 16994 17314 22792 24502 42440 1647 27552 16798 33852 7176 28356 22332 4932 41026 5956
internal_value=0 0.022639 -0.0313806 0.0340124 -0.0196191 0.0230086 -0.00953142 0.0262369 -0.0705345 -0.00877277 -0.0173955 0.00330909 0.0556497 0.0175393 -0.032411
internal_weight=0 25866.2 18593.4 18993 14302 12595.5 10751.9 11888.1 4291.41 6873.13 8127.83 4550.36 6397.57 8274.74 4113.15
internal_count=321712 143770 177942 96948 121298 67514 78858 59471 56644 46822 61864 29508 29434 42673 34312
is_linear=0
shrinkage=0.134074


Tree=17
num_leaves=16
num_cat=0
split_feature=35 44 38 38 35 38 14 5 33 5 33 47 35 9 38
split_gain=1665.99 637.917 349.596 269.277 176.114 148.114 109.717 106.47 124.217 103.83 111.007 92.5813 110.658 91.8068 81.6814
threshold=6.1908333333333347 15.084749373433587 6.0736666666666679 6.2770833333333345 6.8510000000000009 6.5055000000000014 3.5500000000000003 0.31000000000000005 8.5000000000000018 0.37000000000000005 17.500000000000004 -1075.7499999999998 5.8336666666666677 86.500000000000014 6.5658333333333347
decision_type=2 2 2 2 2 2 2 2 2 2 2 2 2 2 2
left_child=2 4 -1 6 7 11 -3 8 -2 10 14 13 -13 -4 -5
right_child=1 3 5 9 -6 -7 -8 -9 -10 -11 -12 12 -14 -15 -16
leaf_value=0.061299898177381157 -0.062431161588941887 0.027581113068330113 0.052846262930719104 -0.02440790479823083 -0.09297651643541939 -0.0068720456947243529 -0.0033253681666266196 0.0029572588852238135 -0.018521472483096536 0.040892880143040954 0.011246671026882933 0.046512180201223545 -0.010323792194129561 0.022327220447298235 -0.056191754550393463
leaf_weight=5007.4536556195235 4005.4748856909573 3531.4990146756172 3103.7648391816765 5485.3809605967253 1608.9921684265137 2934.225545167923 4954.5158666968346 781.73339207470417 1643.0891331993043 424.19411755912006 1181.0986404158175 884.05194644629955 2016.7068910598755 4184.3161804135889 1993.0043989419937
leaf_count=21541 58952 20192 15319 41128 31166 19733 29636 4867 12831 1911 6462 4483 12944 23542 17005
internal_value=0 -0.021961 0.0311525 -0.00763787 -0.0532435 0.0196355 0.00952421 -0.043268 -0.0496861 -0.0236833 -0.0268655 0.027281 0.00696749 0.0353471 -0.0329018
internal_weight=0 25609 18130.5 17569.7 8039.29 13123.1 8486.01 6430.3 5648.56 9083.68 8659.48 10188.8 2900.76 7288.08 7478.39
internal_count=321712 224150 97562 116334 107816 76021 49828 76650 71783 66506 64595 56288 17427 38861 58133
is_linear=0
shrinkage=0.134074


Tree=18
num_leaves=16
num_cat=0
split_feature=35 38 38 35 35 47 38 5 33 9 37 38 9 38 5
split_gain=1562.86 592.663 253.242 252.224 191.043 119.79 112.137 107.665 104.396 103.664 94.121 88.8414 87.913 79.3324 76.1752
threshold=6.4255000000000013 6.2570833333333349 6.4855000000000009 6.0829166666666676 6.1155000000000017 -1004.3499999999998 6.8308333333333344 0.085000000000000006 -5.4999999999999991 76.500000000000014 5.4666666666666677 5.885833333333335 84.500000000000014 5.9129166666666686 0.23500000000000001
decision_type=2 2 2 2 2 2 2 2 2 2 2 2 2 2 2
left_child=1 3 8 11 14 10 9 -4 -2 -6 12 -1 -5 -12 -3
right_child=2 4 7 5 6 -7 -8 -9 -10 -11 13 -13 -14 -15 -16
leaf_value=0.088615549931347209 -0.061299020435739975 0.0056869956321461534 -0.10755603779732772 0.079843627260919911 0.0099714002790619108 -0.036145631844403316 -0.063639797452596389 -0.056016621117024393 -0.020373037148094027 -0.021219183967652617 0.046415079538159272 0.046522053867953217 0.025864641297726077 0.0069930357632055134 0.039073329079595903
leaf_weight=1074.3702500559739 1351.8372543472797 3995.8415634045377 975.73152680136263 876.81255239248276 2903.6417759889737 653.10325384140015 781.56142592430115 2998.2292590644211 6670.7867719512433 5601.4665864473209 1133.292083568871 5927.4711799621582 1450.2933435365558 4866.9576327800751 1780.262641726993
leaf_count=4192 24945 29198 23916 3909 18489 4778 7067 34923 51716 43104 5616 27932 7779 27178 7004
internal_value=0 0.0159446 -0.0410335 0.0339282 -0.00313001 0.0190312 -0.0150443 -0.0687286 -0.027292 -0.0105566 0.0233775 0.0530115 0.0462839 0.0144664 0.0160037
internal_weight=0 31045.1 11996.6 15982.3 15062.8 8980.46 9286.67 3973.96 8022.62 8505.11 8327.36 7001.84 2327.11 6000.25 5776.1
internal_count=321746 186246 135500 81384 104862 49260 68660 58839 76661 61593 44482 32124 11688 32794 36202
is_linear=0
shrinkage=0.134074


Tree=19
num_leaves=16
num_cat=0
split_feature=35 35 38 38 44 44 38 38 38 33 9 9 40 42 27
split_gain=1441.46 461.2 390.094 189.809 177.42 153.996 112.194 97.8515 90.7396 74.0232 70.6261 69.5754 77.8666 69.3207 64.6476
threshold=6.260833333333335 6.5508333333333342 6.3570833333333345 6.3792857142857153 16.930172413793109 14.083796296296297 6.0155000000000012 6.2736666666666681 6.7670833333333347 4.5000000000000009 74.500000000000014 76.500000000000014 72.765000000000029 18.024164086687314 2.8333333333333335
decision_type=2 2 2 2 2 2 2 2 2 2 2 2 2 2 2
left_child=2 3 4 11 6 -3 -1 -7 13 14 -5 12 -2 -4 -8
right_child=1 5 8 10 -6 7 9 -9 -10 -11 -12 -13 -14 -15 -16
leaf_value=0.051166312892150442 0.0549277619119522 -0.10338086005801413 -0.0093236238663256654 -0.012736114461323545 0.065629919063992029 -0.01980217962910109 0.024490848906464156 -0.057192967406907408 -0.040029421566250979 0.033700716949823739 -0.044538326256899623 -0.0067736552523122873 0.0040682862403301897 0.020294150226959733 -0.0073341530851291654
leaf_weight=3048.6153316630516 780.93757290020585 968.31775722280145 3202.638379573822 2163.1467362884432 2948.680835723877 1841.5913198255002 2415.6828068951145 4061.4630714654922 995.6977481842041 4450.276394598186 3036.8724120613188 5947.6551278419793 1776.6269738450646 2547.6666412353516 2175.5211468553171
leaf_count=14123 4063 27301 22351 17561 13062 17967 13492 47713 7632 20213 30726 42253 10900 16291 16098
internal_value=0 -0.0253869 0.0240961 -0.011161 0.0361122 -0.0537368 0.0288976 -0.0455546 -0.00267484 0.0213701 -0.0313379 0.00116321 0.0196627 0.00377885 0.00938624
internal_weight=0 20576.6 21784.8 13705.2 15038.8 6871.37 12090.1 5903.05 6746 9041.48 5200.02 8505.22 2557.56 5750.31 4591.2
internal_count=321746 198484 123262 105503 76988 92981 63926 65680 46274 49803 48287 57216 14963 38642 29590
is_linear=0
shrinkage=0.134074


Tree=20
num_leaves=16
num_cat=0
split_feature=35 38 35 35 38 37 47 44 9 44 41 47 37 37 10
split_gain=1374.63 446.494 318.013 247.327 176.917 153.059 133.227 104.43 97.808 85.7951 80.6318 124.579 80.5959 72.7023 70.59
threshold=6.3477500000000022 6.4406250000000016 6.6763333333333348 6.0377500000000017 6.1910000000000016 5.3641666666666685 -1091.5499999999997 13.523009049773757 86.500000000000014 17.317320512820519 17.069296296296297 -1381.3999999999999 5.5112500000000013 5.5341666666666685 5.5000000000000009
decision_type=2 2 2 2 2 2 2 2 2 2 2 2 2 2 2
left_child=1 3 4 9 -2 -3 8 -4 12 -1 11 -6 -5 -13 -10
right_child=2 5 7 6 10 -7 -8 -9 14 -11 -12 13 -14 -15 -16
leaf_value=0.040764849271227505 0.0068989992354679961 0.015697361519617356 -0.1386032487453637 0.056689147424821458 -0.021269299666940453 -0.029241244312121002 -0.024746279625297855 -0.058885970491679582 -0.00346487908368791 0.079762065550362651 -0.00058533433290354638 -0.039749067400754644 0.022526079046394691 -0.082190849557573692 0.027617240312537598
leaf_weight=6561.1783325326978 3032.1275935173035 2087.2040271759033 326.26938143372536 1814.4738938873634 4176.8577815415338 3905.6784038543701 1265.9249388054013 3404.3795958459377 3454.0959914522246 1211.0920562744141 1350.6567444801331 1815.1314106313512 4004.167245388031 1234.1211612969637 2112.5732591412961
leaf_count=33726 21897 13781 11787 8928 35049 30576 9328 48876 23075 5170 13752 19499 21706 13993 10573
internal_value=0 0.018593 -0.0318662 0.0280367 -0.0209036 -0.0135698 0.0164551 -0.0659301 0.0210489 0.0468678 -0.0307463 -0.0363661 0.0332092 -0.0569903 0.00831236
internal_weight=0 26416.4 15339.5 20423.5 11608.9 5992.88 12651.2 3730.65 11385.3 7772.27 8576.77 7226.11 5818.64 3049.25 5566.67
internal_count=321716 156863 164853 112506 104190 44357 73610 60663 64282 38896 82293 68541 30634 33492 33648
is_linear=0
shrinkage=0.134074


Tree=21
num_leaves=16
num_cat=0
split_feature=35 38 38 35 35 38 33 33 37 38 38 35 47 38 37
split_gain=1294.75 462.504 290.358 182.986 162.363 129.377 87.7153 81.726 81.0326 97.5524 79.943 67.5893 90.6436 60.8453 57.0648
threshold=6.2055000000000016 6.4035416666666682 6.1070833333333345 6.6563333333333352 6.4620000000000006 6.5955000000000004 -16.499999999999996 -3.4999999999999996 5.3616666666666681 6.6955000000000018 6.1208333333333345 5.9308333333333341 -1000.4499999999999 5.8558333333333339 5.5012500000000015
decision_type=2 2 2 2 2 2 2 2 2 2 2 2 2 2 2
left_child=2 4 13 6 10 7 -3 -4 -8 -10 -2 -9 -13 -1 -7
right_child=1 3 5 -5 -6 14 8 11 9 -11 -12 12 -14 -15 -16
leaf_value=0.078723090432800541 0.022680266957619707 -0.11607175401786751 -0.0086369974587578516 -0.07811818671075596 -0.0250992524926223 -0.002023024622740211 0.0014255271589665019 0.044079453483379133 -0.028173928408608429 -0.072843276192906772 -0.004087858170238357 0.025572262140899246 -0.017289631874661659 0.044417822981442867 -0.052971911841695196
leaf_weight=1176.2825903859048 2987.2635269165039 224.92137052118778 1428.3050329713151 2258.3620166778564 5140.1486415863037 1395.2300934791565 1140.9987192451954 2596.311362025328 4058.664052978158 1129.3594006896019 6082.5159025192261 5220.8503129798919 1064.0474035423249 4722.0545196533203 553.26324987411499
leaf_count=4869 17857 6809 14313 41948 52317 9582 10028 13296 36849 11857 41481 27479 6679 21844 4508
internal_value=0 -0.0210371 0.0268451 -0.0451684 -0.00606104 0.0150674 -0.0337846 0.0210606 -0.0308209 -0.0379349 0.00471698 0.0258508 0.0182946 0.0512935 -0.0165741
internal_weight=0 23022.2 18156.3 8812.31 14209.9 12258 6553.94 10309.5 6329.02 5188.02 9069.78 8881.21 6284.9 5898.34 1948.49
internal_count=321716 219146 102570 107491 111655 75857 65543 61767 58734 48706 59338 47454 34158 26713 14090
is_linear=0
shrinkage=0.134074


Tree=22
num_leaves=16
num_cat=0
split_feature=35 38 38 35 35 47 14 38 38 5 44 37 38 1 5
split_gain=1207.4 501.231 230.082 214.666 132.665 87.2739 76.5219 76.2424 74.5248 72.6862 71.4545 61.8562 76.3331 60.2443 59.8074
threshold=6.1608333333333345 6.3408333333333342 6.1855000000000011 6.5655000000000019 6.4855000000000009 -1100.0499999999997 3.9500000000000006 6.6206250000000013 5.9012500000000019 0.055000000000000007 13.450345238095242 5.2641666666666689 6.605500000000001 217045.50000000003 0.055000000000000007
decision_type=2 2 2 2 2 2 2 2 2 2 2 2 2 2 2
left_child=2 4 8 9 5 6 -2 13 -1 -3 -5 -11 -13 -4 -12
right_child=1 3 7 10 -6 -7 -8 -9 -10 11 14 12 -14 -15 -16
leaf_value=0.07391739714830009 0.024220671069494524 -0.071233540107635551 0.027754782170867895 -0.1376829073405153 -0.022325680680645263 -0.041431973599310078 -0.00040787138379882277 -0.013909044119650557 0.039970154054219963 0.024848233372018136 -0.11185789548608274 -0.016485055583657704 -0.047442966338328181 -0.00010800057633529906 -0.053892373855481283
leaf_weight=1478.9266493664472 4270.9665710050613 589.86317106895149 5035.3430545926094 228.38307237252593 3581.983362197876 603.09496693126857 4813.3116615265608 1427.7216243743896 5688.3710098266602 466.29939492978156 361.46558410371654 5000.5612991526723 2018.9170459508896 1917.3340064883232 3179.4417163722683
leaf_count=6131 25826 10663 30093 9674 37379 5097 30779 10327 27399 3936 10004 40068 18696 13447 42268
internal_value=0 -0.0181796 0.0293602 -0.0382259 -0.000274405 0.00786838 0.0111595 0.0142531 0.0470024 -0.0258637 -0.0646639 -0.0222622 -0.0254125 0.0200549 -0.0598777
internal_weight=0 25114.3 15547.7 11844.9 13269.4 9687.37 9084.28 8380.4 7167.3 8075.64 3769.29 7485.78 7019.48 6952.68 3540.91
internal_count=321787 234390 87397 135309 99081 61702 56605 53867 33530 73363 61946 62700 58764 43540 52272
is_linear=0
shrinkage=0.134074


Tree=23
num_leaves=16
num_cat=0
split_feature=35 38 38 44 44 38 37 35 35 41 1 41 1 38 1
split_gain=1164.8 375.352 277.596 140.514 122.13 105.818 105.44 102.503 93.9923 76.124 67.3273 66.6956 60.7493 59.0826 57.7252
threshold=6.3245000000000013 6.1910000000000016 6.4570833333333351 16.650606617647068 16.930172413793109 6.510625000000001 5.4212500000000015 6.6208333333333345 6.8070833333333356 17.02688577586207 131759.00000000003 17.34357142857143 73017.500000000015 6.0455000000000014 207162.00000000003
decision_type=2 2 2 2 2 2 2 2 2 2 2 2 2 2 2
left_child=1 4 7 5 9 10 -7 11 12 14 -3 13 -4 -2 -1
right_child=2 3 8 -5 -6 6 -8 -9 -10 -11 -12 -13 -14 -15 -16
leaf_value=0.033016097857553314 0.013677945334826289 0.017906233040987003 -0.029068778342473744 0.032031229960548566 0.066413123615100003 0.0001198209607095944 -0.046687942691367945 -0.03943800791614379 -0.091217630269912059 0.053978100411891133 -0.0071557822120797204 0.029992435699289163 -0.061091468087819914 -0.017795610948956358 0.0067737727119438484
leaf_weight=4101.4735960017133 1298.0280622430146 4090.1975739523768 2197.3195445537567 2590.1003799438477 2112.4810409545898 1813.4804090932012 1644.1203060150146 2498.5878715515137 968.95296287536621 1892.8322224617004 3632.8945381641388 738.50738763809204 2112.9226410388947 6043.7846184782684 2403.1137452125549
leaf_count=20590 8888 25283 22331 15750 8850 12841 14476 32737 23539 9380 26505 6161 31186 49283 13987
internal_value=0 0.0184701 -0.028248 0.00389636 0.0375515 -0.00261306 -0.0221107 -0.0156977 -0.0533656 0.0302686 0.00610221 -0.00833728 -0.0448066 -0.0122134 0.0233424
internal_weight=0 24280.7 15858.1 13770.8 10509.9 11180.7 3457.6 10578.9 5279.2 8397.42 7723.09 8080.32 4310.24 7341.81 6504.59
internal_count=321787 147662 174125 94855 52807 79105 27317 97069 77056 43957 51788 64332 53517 58171 34577
is_linear=0
shrinkage=0.134074


Tree=24
num_leaves=16
num_cat=0
split_feature=35 38 35 38 47 35 35 33 38 8 44 5 33 5 41
split_gain=1091.58 429.611 230.812 191.263 114.138 103.796 102.409 89.8501 81.2732 73.1447 66.6571 65.3964 64.9414 58.8433 58.8091
threshold=6.4181666666666688 6.1070833333333345 6.0929166666666683 6.6206250000000013 -1091.5499999999997 5.9608333333333343 6.8355000000000006 13.500000000000002 6.1910000000000016 74.500000000000014 17.317320512820519 0.37000000000000005 -11.499999999999998 0.070000000000000021 16.061589473684215
decision_type=2 2 2 2 2 2 2 2 2 2 2 2 2 2 2
left_child=1 5 10 6 7 -1 8 11 14 -10 13 12 -4 -3 -2
right_child=3 2 4 -5 -6 -7 -8 -9 9 -11 -12 -13 -14 -15 -16
leaf_value=0.063574245528677659 -0.040049500885694915 -0.021165208511036995 -0.067133030492459167 -0.073946018486178974 -0.042643064671412524 0.030168202573162998 -0.0683111453064561 0.020269198619579751 -0.011578282641650398 -0.042558677352339175 0.061006266912399923 0.036842924350055158 -0.0094313930320647013 0.021747618898436814 0.010732767775673127
leaf_weight=2378.3039626784157 533.58512043952942 627.85426408285275 366.46859412733465 1939.8355779647827 1470.9883440211415 5740.0572624206543 989.6951961517334 2366.9162792004645 2210.1492537842714 3661.7697866572416 711.87480163574219 522.01529264450073 8045.0416619731113 6342.2580434656702 1753.5841007232666
leaf_count=10097 4559 8740 7483 35693 13888 30892 19276 12829 20710 42684 3814 2529 58454 35059 15020
internal_value=0 0.0138825 0.00351755 -0.0356769 -0.00752141 0.039977 -0.0275412 -0.00293507 -0.0225722 -0.030923 0.0218842 -0.00909833 -0.0119684 0.0178619 -0.00107547
internal_weight=0 28571.8 20453.4 11088.6 12771.4 8118.36 9148.78 11300.4 8159.09 5871.92 7681.99 8933.53 8411.51 6970.11 2287.17
internal_count=321727 183785 142796 137942 95183 40989 102249 81295 82973 63394 47613 68466 65937 43799 19579
is_linear=0
shrinkage=0.134074


Tree=25
num_leaves=16
num_cat=0
split_feature=44 38 37 38 38 37 44 8 33 5 38 44 38 37 38
split_gain=1027.3 383.224 183.992 161.613 160.398 157.272 95.3888 75.5868 70.9589 69.2754 67.5629 67.0124 64.9133 61.4165 63.7331
threshold=16.036733333333338 6.3336666666666677 5.4341666666666679 6.0310000000000015 6.6955000000000018 5.417083333333335 16.73822916666667 80.500000000000014 -14.499999999999998 0.03500000000000001 6.9312500000000012 15.114082491582495 6.0155000000000012 5.4512500000000008 6.4755000000000011
decision_type=2 2 2 2 2 2 2 2 2 2 2 2 2 2 2
left_child=1 5 7 -2 11 -1 13 10 -7 -10 -3 -4 -11 -5 -15
right_child=3 2 4 6 -6 8 -8 -9 9 12 -12 -13 -14 14 -16
leaf_value=0.02889141271548101 0.051564495068098536 0.01857917569761719 -0.051925350473647588 0.028668471018008155 -0.084410986125259782 -0.08314264599526279 0.037721547193333774 -0.031709053382509629 -0.092313290290591141 0.015172086818993381 -0.046758531283141579 -0.025259983545552384 -0.011368737770868841 0.009132542063089338 -0.03215191906247742
leaf_weight=2624.9467631160369 3763.358738899231 1762.4007523609325 2868.3810880631208 2450.5107243061066 1500.9348211288452 221.23770103347488 3532.7428932189941 1456.0078407721594 164.72799896984361 2196.1867815675214 337.4609067440033 4221.5435786247253 6702.8098670840263 4524.1485333200544 787.72743728198111
leaf_count=18991 17014 16378 43386 14166 24798 6763 19743 17723 3399 15265 4745 36315 49685 27255 6101
internal_value=0 -0.0171677 -0.0339229 0.0274846 -0.0445413 -6.76361e-05 0.0194465 -0.00822928 -0.0082702 -0.00641912 0.00800182 -0.0360717 -0.00480401 0.0111095 0.0029819
internal_weight=0 24056.6 12146.7 15058.5 8590.86 11909.9 11295.1 3555.87 9284.96 9063.72 2099.86 7089.92 8899 7762.39 5311.88
internal_count=321727 237448 143345 84279 104499 94103 67265 38846 75112 68349 21123 79701 64950 47522 33356
is_linear=0
shrinkage=0.134074


Tree=26
num_leaves=16
num_cat=0
split_feature=35 35 38 38 35 38 47 37 37 1 38 14 38 35 14
split_gain=1000.95 298.96 278.974 138.748 112.256 100.924 98.7165 80.831 68.1166 65.2041 56.6345 56.592 53.3093 48.7451 47.9748
threshold=6.2410000000000023 6.5655000000000019 6.3470833333333347 6.3036666666666683 5.8936666666666673 6.5810000000000004 -1083.9499999999996 5.3116666666666683 5.417083333333335 98093.000000000015 5.9012500000000019 5.8500000000000005 6.6955000000000018 6.987750000000001 6.0500000000000007
decision_type=2 2 2 2 2 2 2 2 2 2 2 2 2 2 2
left_child=2 3 4 14 -1 13 8 -4 -6 11 -10 -5 -9 -3 -2
right_child=1 5 7 9 6 -7 -8 12 10 -11 -12 -13 -14 -15 -16
leaf_value=0.054966092441569754 0.0083964708629882517 -0.03250529459589848 0.026055504742550376 -0.0013066602561374438 0.058907552612144136 -0.077941442780566195 -0.0022131638422118959 -0.0035666301887387689 0.056880426207379105 -0.0384266760619155 0.021397991704627764 -0.036053032611439634 -0.040039219203089393 -0.085981179446139561 -0.019828065383985887
leaf_weight=3117.6935378021444 5482.2311404496431 3898.0953531265259 1405.6477041244507 2659.5937515199184 1414.8255842020735 1448.3828744888306 1841.2565198997036 3747.444840669632 947.08479891717434 3132.1680431365967 5766.2990851402283 1237.6205319464207 893.72817635536194 335.71805000305176 1346.41006962955
leaf_count=15141 38605 49354 9376 22517 7124 31260 12108 27721 4327 35009 32453 10880 7506 8119 10240
internal_value=0 -0.0214166 0.0217237 -0.0107842 0.0327278 -0.0473187 0.0257558 -0.00207424 0.0321058 -0.0240071 0.0264304 -0.0123792 -0.0106241 -0.0367961 0.00281131
internal_weight=0 19540.2 19134 13858 13087.2 5682.2 9969.47 6046.82 8128.21 7029.38 6713.38 3897.21 4641.17 4233.81 6828.64
internal_count=321740 205984 115756 117251 71153 88733 56012 44603 43904 68406 36780 33397 35227 57473 48845
is_linear=0
shrinkage=0.134074


Tree=27
num_leaves=16
num_cat=0
split_feature=35 44 35 41 14 44 33 27 33 33 41 4 44 5 33
split_gain=956.649 304.614 207.436 151.428 80.7373 80.0392 68.7159 67.6548 97.7502 63.6591 61.014 60.5409 58.0702 55.1153 54.1687
threshold=6.3508333333333349 16.417113095238101 6.7470833333333351 16.282709790209793 6.1500000000000012 17.156000000000002 -14.499999999999998 3.4166666666666674 17.500000000000004 -16.499999999999996 16.35016666666667 61.550000000000004 13.374422222222224 0.39000000000000007 17.500000000000004
decision_type=2 2 2 2 2 2 2 2 2 2 2 2 2 2 2
left_child=1 3 4 11 9 10 -5 -8 -9 -2 -3 -1 -4 14 -11
right_child=2 5 12 6 -6 -7 7 8 -10 13 -12 -13 -14 -15 -16
leaf_value=-0.035910993651448501 -0.084371209453442536 0.016735450338683858 -0.1377005482391499 -0.076657580689788785 -0.041933355531506525 0.059009061123045638 0.026970122258876673 -0.0065873391840151028 0.037233921014705365 -0.019304795649970848 0.042411764958025573 -0.0045117773653254338 -0.058808890289077084 0.050139392169100253 0.011386491568121134
leaf_weight=1481.9440293304215 230.49045866093365 3613.2559676170349 184.9933343604207 144.30711026187055 2579.4474746100605 2051.3549652099609 5000.2488195376936 3560.9102807911113 1229.1855132710189 7125.1973710812745 3122.473982334137 4365.5982613563538 2108.2328886315227 239.45463605225086 1203.1341425422579
leaf_count=12939 8781 21649 9370 3481 27439 9874 30077 25742 6616 70860 15958 31782 37532 1280 8360
internal_value=0 0.015759 -0.0284867 0.00460994 -0.0210523 0.0357665 0.0146906 0.0160581 0.00463847 -0.0149122 0.0286613 -0.0124954 -0.0652906 -0.0130185 -0.0148556
internal_weight=0 24569.3 13671 15782.2 11377.7 8787.08 9934.65 9790.34 4790.1 8798.28 6735.73 5847.54 2293.23 8567.79 8328.33
internal_count=321740 158118 163622 110637 116720 47481 65916 62435 32358 89281 37607 44721 46902 80500 79220
is_linear=0
shrinkage=0.134074


Tree=28
num_leaves=16
num_cat=0
split_feature=35 35 38 38 38 38 14 37 47 8 37 40 8 37 47
split_gain=933.528 353.004 184.574 152.432 99.6563 78.4558 63.9611 61.9069 69.4837 66.1883 59.6388 58.768 57.2226 50.5162 49.6945
threshold=6.1708333333333352 6.5155000000000021 6.243333333333335 6.4270833333333348 6.5055000000000014 6.0077500000000015 4.3500000000000005 5.4370833333333346 -1299.0499999999997 75.500000000000014 5.2316666666666682 73.105000000000032 89.500000000000014 5.2316666666666682 -1047.0499999999997
decision_type=2 2 2 2 2 2 2 2 2 2 2 2 2 2 2
left_child=2 3 6 5 -3 -2 -1 12 -9 11 -4 -10 -7 -5 -12
right_child=1 4 10 13 -6 7 -8 8 9 -11 14 -13 -14 -15 -16
leaf_value=0.049615545586128379 0.027031850495332608 -0.031277920626861223 0.044537934843703275 0.034191715819171555 -0.065631017918528198 0.031332657370000953 0.026033866045842263 0.00038682408539268166 0.023746626733258648 -0.047012412860918049 0.012394126387905708 -0.041618493983917516 -0.014382994238099923 -0.030609486452307943 -0.014447895568386236
leaf_weight=4570.650879450608 1886.7683510780334 4661.3734149932861 759.82729339599609 225.3270435333252 2272.7182731628418 1513.3298487327993 3840.6555062532425 4687.2404153365642 625.828451860114 1364.9540140457684 4312.7675494253635 406.82293030340225 724.15250096097589 4200.2980093955994 1735.7513309419155
leaf_count=22343 11809 58420 4984 2204 45748 10327 20345 33206 3743 12837 29660 3232 6287 43261 13297
internal_value=0 -0.0173848 0.0255805 -0.0062078 -0.0425638 0.00210113 0.0388673 -0.00293433 -0.00908533 -0.0276451 0.00914376 -0.00190475 0.0164831 -0.0272749 0.00466995
internal_weight=0 22568.8 15219.7 15634.7 6934.09 11209.1 8411.31 9322.33 7084.85 2397.61 6808.35 1032.65 2237.48 4425.63 6048.52
internal_count=321703 231074 90629 126906 104168 81441 42688 69632 53018 19812 47941 6975 16614 45465 42957
is_linear=0
shrinkage=0.134074


Tree=29
num_leaves=16
num_cat=0
split_feature=35 38 35 38 44 35 28 33 37 5 38 44 1 8 4
split_gain=896.135 246.425 229.736 136.752 104.012 86.5654 72.4523 71.1432 63.0356 56.5392 54.4872 51.147 49.4014 46.909 52.0218
threshold=6.2777500000000019 6.2770833333333345 6.7129166666666675 6.2470833333333351 16.815741758241764 6.0008333333333344 23.216666666666672 17.500000000000004 5.587083333333335 0.31000000000000005 6.8308333333333344 13.836203703703704 134048.50000000003 80.500000000000014 71.350000000000009
decision_type=2 2 2 2 2 2 2 2 2 2 2 2 2 2 2
left_child=1 4 3 -2 8 -3 7 13 -1 11 12 -4 -7 -5 -15
right_child=2 5 9 6 -6 10 -8 -9 -10 -11 -12 -13 -14 14 -16
leaf_value=0.03620688930641431 0.0011538502007626178 0.020606310914635436 -0.11266932279460802 -0.012500776185717251 0.052373543073495857 0.0064219000912816605 -0.048194567483612873 0.031604705966378599 0.013427634900041582 -0.0034568758558487459 -0.051406928720088341 -0.057533965619636057 -0.020099692556603817 -0.064466122506527321 -0.02463848148629634
leaf_weight=4013.269853149046 5178.4138956069946 2822.0836586952209 365.35444481670856 3494.5612674189324 3095.2463493347168 3170.7246689936146 2071.7764358520508 453.57471900992095 4847.110399723053 294.65890463255346 477.30779075622559 1983.1831150893122 2092.3224177220836 812.82761299129925 2222.1026685470715
leaf_count=22183 40881 19346 17702 34613 14371 22606 24624 2662 28578 2608 4442 32848 18136 11858 24245
internal_value=0 0.0187499 -0.0229576 -0.016202 0.031184 0.00137226 -0.02614 -0.0195726 0.0237624 -0.0592672 -0.00806472 -0.0662128 -0.00410079 -0.0231511 -0.0353652
internal_weight=0 20518.1 16876.5 14233.3 11955.6 8562.44 9054.84 6983.07 8860.38 2643.2 5740.35 2348.54 5263.05 6529.49 3034.93
internal_count=321703 129662 192041 138883 65132 64530 98002 73378 50761 53158 45184 50550 40742 70716 36103
is_linear=0
shrinkage=0.134074


Tree=30
num_leaves=16
num_cat=0
split_feature=35 35 38 38 38 38 38 37 37 35 47 35 47 8 45
split_gain=841.251 336.733 165.635 127.378 107.993 72.4809 71.8718 68.0579 65.5268 63.2951 60.2228 52.2244 56.1919 51.7235 58.0879
threshold=6.1455000000000011 6.4645000000000019 6.0736666666666679 6.4955000000000016 6.2736666666666681 6.5455000000000014 5.9458333333333337 5.3387500000000019 5.4641666666666682 6.7877500000000017 -1105.2499999999998 5.7908333333333344 -1083.9499999999996 87.500000000000014 1304.5600000000006
decision_type=2 2 2 2 2 2 2 2 2 2 2 2 2 2 2
left_child=2 3 -1 6 -3 11 -2 -8 -5 -6 13 -4 -13 -9 -15
right_child=1 4 5 8 9 -7 7 10 -10 -11 -12 12 -14 14 -16
leaf_value=0.049139125222190862 0.032615569631211039 -0.015034356240972111 0.048312684693796258 -0.0075258830718018463 -0.039843737568199505 -0.0075204594031813357 0.032823613625346804 0.0067995769501795426 -0.047405522616071415 -0.073868646156069945 -0.041114161527499568 0.025477194632853827 -0.0014212707778999932 -0.048749113436008025 -0.0052642062124066344
leaf_weight=4010.1424410827531 1290.728346824646 2734.0331001281738 1179.8597660064697 1438.9152590036392 4424.9930342435837 1798.8782086372375 975.48042178153992 5468.1335310012801 1544.5697182416916 1282.3327656984329 737.35339137446135 4789.882338328287 1958.2564441729337 697.58515561383683 2677.3190989494324
leaf_count=18651 7719 30081 6581 13684 58744 13647 7324 38421 17045 32706 6859 29279 14035 6876 20080
internal_value=0 -0.0156418 0.0261976 -0.00346418 -0.0370181 0.0167224 0.00276292 -0.000878967 -0.0282226 -0.0475229 -0.00432669 0.0222387 0.0176546 -0.00124071 -0.0143016
internal_weight=0 23271.4 13737 14830.1 8441.36 9726.88 11846.6 10555.9 2983.48 5707.33 9580.39 7928 6748.14 8843.04 3374.9
internal_count=321732 239539 82193 118008 121531 63542 87279 79560 30729 91450 72236 49895 43314 65377 26956
is_linear=0
shrinkage=0.134074


Tree=31
num_leaves=16
num_cat=0
split_feature=35 35 38 38 38 38 33 44 5 0 1 35 38 41 38
split_gain=807.204 290.089 154.865 146.551 91.6961 72.3358 68.5524 63.9342 54.7815 51.9719 47.7811 45.2661 45.1877 57.3796 43.872
threshold=6.3855000000000013 6.0377500000000017 6.4035416666666682 6.3707142857142873 5.9558333333333353 6.0377500000000017 -9.4999999999999982 17.579403508771936 0.055000000000000007 49605.000000000007 152550.50000000003 6.8660000000000014 6.087083333333335 16.061589473684215 6.5455000000000014
decision_type=2 2 2 2 2 2 2 2 2 2 2 2 2 2 2
left_child=1 4 5 11 -1 -3 -5 14 -8 -4 -7 12 13 -2 -6
right_child=3 2 9 6 7 10 8 -9 -10 -11 -12 -13 -14 -15 -16
leaf_value=0.064521552131928908 -0.03196971186877598 0.029494691907755666 -0.0099025443916926879 -0.082187066337909898 0.028245105027660027 0.013096716307750521 -0.084785029257633676 0.078902544932393917 -0.034565277772309111 -0.042956630704255504 -0.0069371349010849291 -0.061094323152957389 -0.019372831841747224 0.024457967285146313 -0.0016318079371368832
leaf_weight=1386.31299673576 459.21529924869537 2845.60014295578 3485.3987309886143 781.3122491890681 6074.4918513651937 5227.8407304286957 433.14599014649866 403.18316268920898 4354.8657476715744 1139.452034954913 3613.2182579040527 357.15709567070007 3973.2576941251755 1085.7489287853241 1024.8174054268748
leaf_count=5942 4162 16219 29697 29462 35877 33775 12032 2016 48093 12699 27359 7424 39933 9357 7685
internal_value=0 0.013301 0.00267334 -0.0296349 0.0327871 0.0108979 -0.0452271 0.0268982 -0.0391526 -0.018081 0.00489562 -0.0148285 -0.0118002 0.00759629 0.0239156
internal_weight=0 25200.3 16311.5 11444.7 8888.81 11686.7 5569.32 7502.49 4788.01 4624.85 8841.06 5875.38 5518.22 1544.96 7099.31
internal_count=321732 171269 119749 150463 51520 77353 89587 45578 60125 42396 61134 60876 53452 13519 43562
is_linear=0
shrinkage=0.134074


Tree=32
num_leaves=16
num_cat=0
split_feature=35 35 38 38 35 35 38 33 41 14 47 1 40 38 37
split_gain=782.256 212.955 211.199 101.947 81.5851 74.8764 70.1484 62.6075 60.9168 57.2064 54.7996 51.3149 51.0236 50.049 48.477
threshold=6.2708333333333348 6.6155000000000017 6.1910000000000016 6.5153571428571437 5.8336666666666677 5.9029166666666679 6.6955000000000018 10.500000000000002 17.091715686274515 4.9500000000000011 -1083.9499999999996 268521.50000000006 70.615000000000023 6.6708333333333352 5.4541666666666684
decision_type=2 2 2 2 2 2 2 2 2 2 2 2 2 2 2
left_child=2 3 5 8 -4 -1 9 13 -2 11 12 -6 -7 -3 -5
right_child=1 7 4 14 6 10 -8 -9 -10 -11 -12 -13 -14 -15 -16
leaf_value=0.054557100298165483 -0.011222037234783681 -0.048473514628760171 0.036312957190828353 -0.013800532585640667 0.021415529050753401 0.06019803780666471 -0.0290169125394533 -0.01606769214581941 0.016962774960563542 -0.0070132547304479357 -5.510730289946016e-06 -0.017547734065084308 0.025818659878674429 -0.091872661568804664 -0.051692367116913267
leaf_weight=2259.2141769815717 8262.3177652359009 2636.5498286001384 1353.5178122520447 1023.6959449052811 3935.6523026376963 948.50534284836613 1208.7374636977911 885.2601339109242 1650.5523715019226 3645.5871069431305 1171.8478347063065 714.18215763568878 4477.59660958522 595.92478728294373 1531.4166759252548
leaf_count=10384 72382 47967 8596 12341 26761 4554 10650 8840 14639 27911 7498 6221 24463 18292 20247
internal_value=0 -0.0214337 0.0180756 -0.0126874 0.0055276 0.0334414 0.00112682 -0.0478761 -0.00651548 0.00553706 0.0261846 0.0154022 0.0318619 -0.0565412 -0.0365714
internal_weight=0 16585.7 19714.8 12468 10857.7 8857.16 9504.16 4117.73 9912.87 8295.42 6597.95 4649.83 5426.1 3232.47 2555.11
internal_count=321746 194708 127038 119609 80139 46899 71543 75099 87021 60893 36515 32982 29017 66259 32588
is_linear=0
shrinkage=0.134074


Tree=33
num_leaves=16
num_cat=0
split_feature=35 38 35 35 38 37 37 38 47 37 38 44 8 36 47
split_gain=747.322 220.241 166.149 137.403 111.485 81.1083 62.9552 72.2296 56.0649 51.6157 51.4253 45.4913 44.8169 49.0731 73.4014
threshold=6.3108333333333357 6.3570833333333345 6.7129166666666675 6.0629166666666681 6.1455000000000011 5.3616666666666681 5.2716666666666683 6.640833333333334 -1002.6499999999997 5.3512500000000012 6.0012500000000015 13.588348457350273 84.500000000000014 6.0236666666666681 -1393.6499999999996
decision_type=2 2 2 2 2 2 2 2 2 2 2 2 2 2 2
left_child=1 3 4 10 -2 -3 -6 12 9 -5 -1 -4 13 -8 -15
right_child=2 5 11 8 6 -7 7 -9 -10 -11 -12 -13 -14 14 -16
leaf_value=0.056842875315678526 0.0075282993056606812 0.017162152454871366 -0.11478960110691068 0.050298012043617613 0.028984749236591594 -0.014469898339618883 0.00426568732057 -0.055594861341762176 -0.023287811788458967 0.012388772977066597 0.031295120375415188 -0.049564437785795862 -0.03517300992416527 -0.0060293500694297035 -0.046625806363003917
leaf_weight=2002.795364369631 2597.3550050258636 2143.2335033416748 213.88180711492896 721.56267926841974 386.25928139686584 4535.689706325531 1767.922092671186 1283.4302178025246 704.44364091008902 6323.5493019223213 5031.3995475769043 2238.5910999514163 2692.5839996764844 1885.9955941955559 1400.9331373870373
leaf_count=8966 21060 15496 12882 4254 4709 39236 17931 19007 5895 39682 29008 40318 31627 15919 15756
internal_value=0 0.0158906 -0.0235352 0.0250201 -0.0170257 -0.00430001 -0.023811 -0.0260859 0.0126794 0.0162961 0.0385943 -0.0553524 -0.0211744 -0.0136876 -0.023379
internal_weight=0 21462.7 14467 14783.8 12014.5 6678.92 9417.12 9030.87 7749.56 7045.11 7034.19 2452.47 7747.43 5054.85 3286.93
internal_count=321746 142537 179209 87805 126009 54732 104949 100240 49831 43936 37974 53200 81233 49606 31675
is_linear=0
shrinkage=0.134074


Tree=34
num_leaves=16
num_cat=0
split_feature=35 35 38 38 38 35 47 47 38 33 36 39 37 8 8
split_gain=739.224 238.264 150.885 107.901 80.7366 71.6592 59.9671 59.6682 50.4643 48.407 47.0378 46.8678 90.3113 51.5173 40.74
threshold=6.2055000000000016 6.5210000000000017 6.1208333333333345 6.2091666666666674 6.5512500000000022 5.8766666666666678 -1092.1499999999996 -1005.0499999999998 5.7958333333333352 13.500000000000002 5.8610000000000015 1403.4500000000005 5.6212500000000016 69.500000000000014 80.500000000000014
decision_type=2 2 2 2 2 2 2 2 2 2 2 2 2 2 2
left_child=2 3 8 -2 -3 -4 10 9 -1 -7 14 12 13 -12 -5
right_child=1 4 5 6 -6 7 -8 -9 -10 -11 11 -13 -14 -15 -16
leaf_value=0.073755152178843209 0.0091417922618866714 -0.030122742456300027 0.033049389888631341 0.031784754246270891 -0.064882649302183279 0.0062920065059884544 -0.052876426121984253 -0.014528091121976032 0.034020679697658367 0.035759531664835517 0.010712932564627719 -0.0076638289349387984 -0.082383382906284802 -0.032896760845439868 -0.011185882348109128
leaf_weight=656.00953300034598 4570.5924763679504 4582.2112493515015 2197.2649321556091 702.13202680391259 1643.8144750595093 5073.188107104972 738.90482777357101 1973.0708164386451 5055.1784210205078 1253.1361760962754 693.89732322224882 3469.0221137789777 505.10451124119572 1600.1864001550712 903.42916526156478
leaf_count=2976 33072 63829 13899 5766 38398 36732 9165 16325 25753 6844 5537 29884 5569 17783 10108
internal_value=0 -0.0177116 0.021075 -0.00749033 -0.0393297 0.0115143 -0.0163308 0.0057946 0.0386196 0.0121535 -0.0128787 -0.0181285 -0.0310457 -0.0196545 0.00753945
internal_weight=0 19409.3 16207.8 13183.3 6226.03 10496.7 8612.68 8299.4 5711.19 6326.32 7873.77 6268.21 2799.19 2294.08 1605.56
internal_count=321640 219111 102529 116884 102227 73800 83812 59901 28729 43576 74647 58773 28889 23320 15874
is_linear=0
shrinkage=0.134074


Tree=35
num_leaves=16
num_cat=0
split_feature=35 35 38 38 38 47 38 40 36 41 8 28 38 47 8
split_gain=695.957 274.39 154.86 113.22 71.3483 62.9211 62.444 62.232 60.9848 54.2988 52.9793 49.1671 47.472 45.8256 44.0279
threshold=6.402000000000001 5.9935416666666681 6.3336666666666677 6.3236666666666688 5.9829166666666689 -1088.2499999999998 6.8458333333333341 71.235000000000028 6.0577500000000013 17.325797962648561 90.500000000000014 11.141666666666669 6.640833333333334 -998.8499999999998 68.500000000000014
decision_type=2 2 2 2 2 2 2 2 2 2 2 2 2 2 2
left_child=1 4 5 -2 -1 7 9 10 -5 13 -3 -6 -10 14 -4
right_child=3 2 6 8 11 -7 -8 -9 12 -11 -12 -13 -14 -15 -16
leaf_value=0.062205948967172242 -0.013177401230613834 0.058225483177250681 0.024252034940666946 -0.024201396745396352 0.037338254285331079 -0.016473731111226266 -0.051688058250957604 0.011193733687229892 -0.044067309207256933 0.031841369293353169 0.012964919428685412 0.011541044369335189 -0.081071458359082429 -0.047940420941598186 -0.013111459258356228
leaf_weight=1344.5831504773596 4386.6519260406494 1056.7433561356738 648.43916719185654 2236.6069939732552 3601.5518610179424 1168.2496233135462 667.6762170791626 8078.5834849327803 2795.3423910737038 544.19835233688354 845.32271364610642 2131.1303532421589 820.02449190616608 585.29314763681032 4370.7921993696364
leaf_count=5850 47581 5786 4762 37210 20941 9476 7193 53240 39875 4481 5422 14514 19516 6005 39788
internal_value=0 0.0119815 0.00316479 -0.029507 0.0343411 0.012903 -0.0127447 0.0163552 -0.0417221 -0.00848754 0.0381939 0.0277734 -0.0525167 -0.0124307 -0.00825593
internal_weight=0 25042.6 17965.3 10238.6 7077.27 11148.9 6816.4 9980.65 5851.97 6148.72 1902.07 5732.68 3615.37 5604.52 5019.23
internal_count=321640 177458 136153 144182 41305 73924 62229 64448 96601 55036 11208 35455 59391 50555 44550
is_linear=0
shrinkage=0.134074


Tree=36
num_leaves=16
num_cat=0
split_feature=35 35 38 38 38 38 38 37 36 44 1 9 5 4 35
split_gain=682.026 271.184 118.599 104.568 83.3605 62.6236 61.1757 51.8201 48.3581 45.1099 43.9912 42.6536 38.7673 38.7342 36.6087
threshold=6.1155000000000017 6.4620000000000006 6.1508333333333347 6.4106250000000014 6.390833333333334 6.7010000000000014 5.9012500000000019 5.4466666666666681 5.7310000000000008 17.467958333333339 153750.00000000003 88.500000000000014 0.10500000000000002 71.15000000000002 7.0155000000000021
decision_type=2 2 2 2 2 2 2 2 2 2 2 2 2 2 2
left_child=3 2 7 6 14 10 -1 -2 -7 11 -4 -8 -6 -13 -3
right_child=1 4 5 -5 12 8 9 -9 -10 -11 -12 13 -14 -15 -16
leaf_value=0.061689220109685916 0.043498241423076574 -0.017839538162164711 -0.00044812187919762941 0.0030948707523827017 -0.069304530676020354 0.0075752564956882143 0.037090633663375748 0.0079774696945682042 -0.05316831026898769 0.066525742070943569 -0.019977165839907669 -0.026952107615875225 -0.039088880625037035 0.020578120165706634 -0.09023390100241406
leaf_weight=1179.8975999309696 938.6235818862915 4001.4349585771561 6455.6585383713245 2717.5578875541687 1085.8444834202528 306.73193359002471 3405.5033888872713 3513.1206140518188 965.8843479193747 535.51206588745117 3062.7322964370251 333.80787760578096 2745.3501233607531 3618.7738224752247 129.58645522594452
leaf_count=5269 5944 46217 52322 20854 35044 3219 19578 23682 11156 2527 30224 2660 37478 21803 3699
internal_value=0 -0.0133811 -0.00289621 0.0262167 -0.0334346 -0.0104988 0.0331272 0.0155032 -0.0384388 0.0288344 -0.00674633 0.026065 -0.0477022 0.0165268 -0.0201639
internal_weight=0 23205 15242.8 11791.1 7962.22 10791 9073.49 4451.74 1272.62 7893.6 9518.39 7358.09 3831.19 3952.58 4131.02
internal_count=321676 248985 126547 72691 122438 96921 51837 29626 14375 46568 82546 44041 72522 24463 49916
is_linear=0
shrinkage=0.134074


Tree=37
num_leaves=16
num_cat=0
split_feature=35 38 35 38 38 37 35 37 47 37 35 38 47 41 8
split_gain=652.26 177.215 157.284 94.0936 80.9904 68.2574 62.8519 58.0535 59.1939 62.2754 49.1048 43.7557 42.5475 40.6923 39.3793
threshold=6.2908333333333344 6.0736666666666679 6.6455000000000011 6.4755000000000011 6.087083333333335 5.3216666666666681 6.0136666666666683 5.3641666666666685 -1205.4499999999996 5.6029166666666681 5.9453571428571435 6.260833333333335 -1000.4499999999999 16.084373913043482 69.500000000000014
decision_type=2 2 2 2 2 2 2 2 2 2 2 2 2 2 2
left_child=1 10 4 6 13 -5 -3 -6 -9 14 -1 -4 -8 -2 -10
right_child=2 3 11 5 7 -7 12 8 9 -11 -12 -13 -14 -15 -16
leaf_value=0.055370878133781151 -0.020326917112698729 0.027867607997368128 -0.021693425405395709 0.017938596135554 0.0072709874266778584 -0.021826448563076209 0.0103128215770447 -0.015077769774857948 -0.0026753728583033742 -0.074238934692120978 0.027705913960314091 -0.056435140633915297 -0.02425891443367275 0.023861665548487575 -0.041644098134854528
leaf_weight=1748.1505219170067 514.17004084587097 4010.5204486846924 911.57375621795654 1094.9942615032196 1312.2802091836929 2638.161408662796 6162.5488888351247 5583.2693998008035 746.12225885270163 687.42012869752944 3505.1108512878418 2424.3215913772583 711.27504571992904 1352.812979221344 1273.32744921837
leaf_count=7818 4196 25182 13332 8115 15051 24151 43128 54912 7407 9470 19778 54148 6568 10740 17680
internal_value=0 0.0158203 -0.0213538 0.0082179 -0.0138834 -0.0101284 0.0145219 -0.0188558 -0.0230066 -0.039303 0.0369451 -0.0469884 0.00671446 0.0116223 -0.0273159
internal_weight=0 19870.8 14805.3 14617.5 11469.4 3733.16 10884.3 9602.42 8290.14 2706.87 5253.26 3335.9 6873.82 1866.98 2019.45
internal_count=321676 134740 186936 107144 119456 32266 74878 104520 89469 34557 27596 67480 49696 14936 25087
is_linear=0
shrinkage=0.134074


Tree=38
num_leaves=16
num_cat=0
split_feature=44 38 37 36 38 44 41 38 40 38 8 38 42 47 36
split_gain=580.296 228.938 142.422 121.176 91.0754 87.1711 63.5304 59.5038 51.5316 50.4735 55.3912 47.7131 44.4961 41.2884 41.07
threshold=16.190851449275367 6.3236666666666688 5.474166666666668 5.9666666666666677 6.5906250000000011 17.067958333333333 16.586339712918662 6.0155000000000012 102.41500000000003 6.9312500000000012 68.500000000000014 6.5355000000000016 17.748973684210533 -1293.2499999999998 5.8536666666666681
decision_type=2 2 2 2 2 2 2 2 2 2 2 2 2 2 2
left_child=1 3 9 12 13 6 11 8 -5 10 -3 -2 -1 -4 -12
right_child=5 2 4 7 -6 -7 -8 -9 -10 -11 14 -13 -14 -15 -16
leaf_value=0.00069112778153426313 0.014894023788795747 0.031225971273598729 -0.020565278834154065 0.031742747871199684 -0.060988501783603502 0.047693931044867147 0.035008484917733632 -0.016921666013776076 -0.011588027504212041 -0.047264543376523742 0.0039215582791537048 -0.024498438608502478 0.028988439269042963 -0.047466874832055791 -0.028814547417692585
leaf_weight=1570.9099286706332 5319.9205104596913 788.0676255850849 4032.2953711806331 999.34799268841743 2013.7867309451103 2392.5810394287109 2917.4014492034912 5266.8785820007324 967.27761459350586 460.97175025939941 1752.7874205600092 613.65870745107532 2785.7786178588867 1392.8509087653365 1128.1929845740669
leaf_count=12831 33739 7645 46203 7173 36835 12372 16594 50141 9592 7949 18185 4980 20510 18910 18067
internal_value=0 -0.0121638 -0.025506 0.00114457 -0.0365918 0.0249585 0.0187937 -0.0094832 0.0103747 -0.00550435 -0.000211725 0.0107957 0.0188158 -0.0275028 -0.00886215
internal_weight=0 23159.1 11569 11590.2 7438.93 11243.6 8850.98 7233.5 1966.63 4130.02 3669.05 5933.58 4356.69 5425.15 2880.98
internal_count=321726 254041 153794 100247 101948 67685 55313 66906 16765 51846 43897 38719 33341 65113 36252
is_linear=0
shrinkage=0.134074


Tree=39
num_leaves=16
num_cat=0
split_feature=35 35 38 38 35 35 37 38 47 38 38 36 37 14 8
split_gain=618.289 209.905 123.172 99.8903 65.6918 58.9066 55.5114 52.0366 49.11 45.8167 42.6546 39.7916 39.753 35.7405 35.5567
threshold=6.185500000000002 6.5610000000000008 6.3108333333333357 6.260833333333335 5.8336666666666677 6.889000000000002 5.2983333333333347 5.8710000000000013 -1083.9499999999996 6.1508333333333347 6.6110000000000015 6.0191666666666679 5.5170833333333347 5.0500000000000007 90.500000000000014
decision_type=2 2 2 2 2 2 2 2 2 2 2 2 2 2 2
left_child=2 3 4 -2 -1 9 -4 -6 12 13 14 -12 -9 -3 -5
right_child=1 5 6 10 7 -7 -8 8 -10 -11 11 -13 -14 -15 -16
leaf_value=0.052470266063455825 0.0050802283860957526 0.017511200793976688 0.030423091727427205 -0.0067684947243837924 0.05533713542467824 -0.071128883742043889 -0.0033042300878836054 0.044412978574073898 0 -0.039587808603293473 -0.023398800507539827 -0.068359261329912407 0.018811153895563346 -0.043304228891683685 -0.031173620176449889
leaf_weight=1856.4430979761528 6327.6315598487854 507.78396706283092 1118.9915432929993 4987.2899195786013 863.86078524589539 880.44192409515381 4026.3214883804321 1588.202850246802 1633.4738443214446 3283.34691375494 1373.5134359427029 484.32550133985933 3585.6419482864439 262.13027335703373 1374.5419667129026
leaf_count=9185 48997 5749 7945 47889 4136 27066 32682 8910 11388 54288 17157 6305 21185 2840 16004
internal_value=0 -0.0156837 0.0207567 -0.00756714 0.0297851 -0.039584 0.00401225 0.0242725 0.020304 -0.032684 -0.0173174 -0.0352193 0.0267015 -0.00307045 -0.0120651
internal_weight=0 19481 14672.9 14547.3 9527.62 4933.7 5145.31 7671.18 6807.32 4053.26 8219.67 1857.84 5173.84 769.914 6361.83
internal_count=321726 226295 95431 136352 54804 89943 40627 45619 41483 62877 87355 23462 30095 8589 63893
is_linear=0
shrinkage=0.134074


Tree=40
num_leaves=16
num_cat=0
split_feature=35 44 35 38 38 42 38 36 14 1 36 47 8 44 38
split_gain=597.457 192.328 122.341 111.202 83.3391 81.5726 70.8444 49.8969 45.6674 45.311 41.201 51.4566 38.3817 35.4807 34.9255
threshold=6.3345000000000011 16.671188235294125 6.7936666666666676 6.5455000000000014 6.2770833333333345 17.951213235294123 5.9458333333333337 5.7670833333333347 5.0500000000000007 150400.50000000003 6.0536666666666683 -1381.3999999999999 72.500000000000014 17.579403508771936 6.0736666666666679
decision_type=2 2 2 2 2 2 2 2 2 2 2 2 2 2 2
left_child=1 3 4 5 -2 6 -1 -5 13 -8 12 -12 -6 -3 -7
right_child=2 8 -4 7 10 14 9 -9 -10 -11 11 -13 -14 -15 -16
leaf_value=0.033694109111065629 -0.0039466306108604651 0.041397537636223669 -0.059752724661207006 0.0013862166916184424 0.0043081892214190806 0.049781092612078408 0.0086128702174421926 -0.035800557845427038 0.020632493546211262 -0.01196051466749767 -0.026246631898822766 -0.060957281058961102 -0.026987140947875039 0.09072292875292437 0.020074060500648604
leaf_weight=1237.2363051063658 4361.165548324585 2869.9782437980175 1458.5844688415527 1174.8796473457478 1040.6474309836049 903.75557426735759 4183.4770879559219 1430.1785083697177 2165.3401155769825 3559.9319581985474 2317.9711751509458 1166.6773820742965 2138.5447462729644 294.11207580566406 3510.0434302873909
leaf_count=7157 41328 15444 39171 10484 12588 5047 29248 14361 13316 29205 25386 18468 33118 1256 26124
internal_value=0 0.0136915 -0.0232374 0.00633322 -0.0183899 0.0112684 0.00391626 -0.0189895 0.0357531 -0.000830199 -0.0278218 -0.0379187 -0.0167072 0.0460515 0.0261954
internal_weight=0 21328.9 12483.6 15999.5 11025 13394.4 8980.65 2605.06 5329.43 7743.41 6663.84 3484.65 3179.19 3164.09 4413.8
internal_count=321701 151642 170059 121626 130888 96781 65610 24845 30016 58453 89560 43854 45706 16700 31171
is_linear=0
shrinkage=0.134074


Tree=41
num_leaves=16
num_cat=0
split_feature=35 35 38 38 37 35 40 6 8 40 44 6 37 38 37
split_gain=580.049 154.944 152.625 75.8186 72.1904 68.2924 43.2921 41.6469 47.2197 43.2876 40.9264 40.4835 39.235 38.5942 38.3416
threshold=6.2508333333333344 6.6108333333333347 6.2355000000000018 6.4608333333333343 5.4012500000000019 5.9529166666666677 72.125000000000028 1257.3000000000004 72.500000000000014 73.105000000000032 13.745224171539961 1056.1320000000003 6.0277500000000019 6.5455000000000014 5.304166666666668
decision_type=2 2 2 2 2 2 2 2 2 2 2 2 2 2 2
left_child=2 3 5 6 13 -1 -2 8 9 -8 -3 -6 -9 -4 -5
right_child=1 10 4 14 11 -7 7 12 -10 -11 -12 -13 -14 -15 -16
leaf_value=0.044641957273854761 0.017084693247072867 -0.093396807904175705 0.033371807295648051 0.010667048383245366 -0.0477636229188588 0.020335787047272669 0.029451371005247907 0.0035293421542850556 -0.048900791411986187 -0.037227150453342385 -0.038137313033797651 -0.0022916072359516334 -0.019564420501772126 0.0022572745738808427 -0.034256511130282344
leaf_weight=3218.7313851951185 1380.6500264368951 262.02679721987806 1739.5947871208191 383.91778540611267 378.5307912286371 5965.9654083251953 367.9638760596863 4230.6678497977555 873.76693401770899 331.31579606700689 3530.7548533233348 4948.8906159941107 1918.9476752518676 1233.2531080245972 2800.4925224781036
leaf_count=16217 12302 16565 12555 4640 3780 36677 2671 35772 12135 3403 59603 40675 16981 9693 38032
internal_value=0 -0.0183174 0.0169625 -0.0109902 0.0037679 0.0288714 -0.00474386 -0.00866396 -0.0281346 -0.00197676 -0.0420136 -0.00555473 -0.00365949 0.0205108 -0.0288006
internal_weight=0 16080.5 17485 12287.7 8300.27 9184.7 9103.31 7722.66 1573.05 699.28 3792.78 5327.42 6149.62 2972.85 3184.41
internal_count=321701 202104 119597 125936 66703 52894 83264 70962 18209 6074 76168 44455 52753 22248 42672
is_linear=0
shrinkage=0.134074


Tree=42
num_leaves=16
num_cat=0
split_feature=44 36 38 44 38 41 38 38 8 38 36 37 44 38 28
split_gain=493.878 185.612 121.015 104.725 79.332 63.5171 58.7536 56.705 67.7587 53.6232 41.7024 41.6326 41.1252 36.6496 36.4972
threshold=15.972857142857146 6.0308333333333346 6.4536666666666669 16.73822916666667 6.2010000000000014 16.986830143540676 6.3936666666666673 6.9712500000000022 67.500000000000014 6.0455000000000014 5.8570833333333345 5.8477500000000022 17.743867521367523 6.0455000000000014 29.833333333333339
decision_type=2 2 2 2 2 2 2 2 2 2 2 2 2 2 2
left_child=1 4 9 5 11 6 -2 8 -6 -3 -10 -1 13 -5 -4
right_child=3 2 14 12 7 -7 -8 -9 10 -11 -12 -13 -14 -15 -16
leaf_value=0.029747428977743202 0.012389576331652637 0.0042983940768361968 -0.044385157247915655 0.049426400078698578 0.028792805697654106 0.035417695963711922 -0.014440617686747651 -0.055693126045288546 0.0019435142200093223 -0.024383795943557808 -0.020780412893050361 -0.010020983823222491 0.086601630287400741 0.02334813462408564 -0.086298252894699667
leaf_weight=1843.7440645835741 6092.6954060420394 1504.6479960083961 2235.299573302269 1476.238351887092 906.79446056501911 1572.7601723670959 1927.9138673916459 425.6429648399353 2625.761287718844 5183.3028362989426 3220.5274268984795 630.39697120897472 266.73098754882812 2926.5271205250174 459.98489284515381
leaf_count=13799 39847 14250 38711 6668 8445 9414 16334 7365 29027 58887 41974 5842 1249 18316 11590
internal_value=0 -0.0141848 -0.0276122 0.0188113 -0.00111826 0.0107756 0.00592417 -0.00826583 -0.00524975 -0.0179132 -0.0105552 0.0195658 0.0352878 0.0321301 -0.0516163
internal_weight=0 19036.1 9383.24 14262.9 9652.87 9593.37 8020.61 7178.73 6753.08 6687.95 5846.29 2474.14 4669.5 4402.77 2695.28
internal_count=321718 229890 123438 91828 106452 65595 56181 86811 79446 73137 71001 19641 26233 24984 50301
is_linear=0
shrinkage=0.134074


Tree=43
num_leaves=16
num_cat=0
split_feature=35 35 47 38 38 35 37 47 37 8 10 41 38 37 9
split_gain=553.482 224.395 95.0566 78.943 73.4791 64.9981 63.7034 53.0158 62.8902 50.6247 47.5584 45.4542 49.4617 41.3655 39.013
threshold=6.1063333333333345 6.4620000000000006 -1096.3499999999997 6.087083333333335 5.9458333333333337 6.8355000000000006 5.417083333333335 -1299.0499999999997 5.6570833333333352 77.500000000000014 9.5000000000000018 16.430166666666672 5.9736666666666682 6.0277500000000019 87.500000000000014
decision_type=2 2 2 2 2 2 2 2 2 2 2 2 2 2 2
left_child=3 2 4 -1 -2 11 -6 13 9 -9 14 -3 -13 -8 -5
right_child=1 5 -4 10 6 -7 7 8 -10 -11 -12 12 -14 -15 -16
leaf_value=0.041411997280413192 0.032469789568080228 -0.036739497199255712 -0.030172118712915908 0.022047030051171142 0.017586125367694171 -0.061203098816220866 0.0091378812722602738 0.0058081721965236362 -0.072752280086180343 -0.031715336260024041 0.043266363428477894 0.04806210743253897 -0.018675385457872531 -0.01328574300640201 0.00087131922056096203
leaf_weight=3477.2209744781867 1248.5793790221214 3319.7087888717651 1951.2660417556763 3454.0268109533936 2416.7781453132629 1108.6794843673706 3707.8094876362011 1211.2401453042403 377.33189774537459 1372.7930529937148 1053.7055453024805 213.00030589103699 2799.0414497852325 2458.0838311254047 2879.966487461701
leaf_count=17419 7960 43255 21329 24093 20416 33255 30293 10074 4038 14658 5663 2040 43888 20647 22690
internal_value=0 -0.0122021 -0.00261341 0.0247315 0.00158296 -0.0311835 -0.00175005 -0.00688483 -0.021626 -0.0140848 0.0168589 -0.025898 -0.0138995 0.000178078 0.0124398
internal_weight=0 22184.3 14743.9 10864.9 12792.6 7440.43 11544 9127.26 2961.37 2584.03 7387.7 6331.75 3012.04 6165.89 6333.99
internal_count=321718 251853 129415 69865 108086 122438 100126 79710 28770 24732 52446 89183 45928 50940 46783
is_linear=0
shrinkage=0.134074


Tree=44
num_leaves=16
num_cat=0
split_feature=35 35 38 38 38 38 36 36 47 37 36 44 37 40 8
split_gain=517.577 181.926 96.2717 95.6231 61.0631 52.673 52.1692 50.0697 47.5617 53.61 42.0838 41.1801 37.537 38.5915 34.4369
threshold=6.372250000000002 6.0070833333333349 6.510625000000001 6.3236666666666688 5.9012500000000019 5.8187500000000014 5.743333333333335 6.1033333333333344 -1000.4499999999999 5.3587500000000015 6.2807142857142866 17.20425824175825 5.2316666666666682 60.715000000000011 78.500000000000014
decision_type=2 2 2 2 2 2 2 2 2 2 2 2 2 2 2
left_child=1 5 4 10 -3 -1 -4 -5 9 -6 14 12 -7 -14 -2
right_child=3 2 6 7 8 11 -8 -9 -10 -11 -12 -13 13 -15 -16
leaf_value=0.075808448444431312 0.011883907600147795 0.037795002358527938 0.0090739129031846763 -0.02336031761695595 0.034512039727638673 0.048340175426856875 -0.031758189192231438 -0.048246240583136826 -0.021662748108672612 0.0044832146706392179 -0.036768254886842149 0.045947999752723373 -0.012023689388143861 0.021489760631256492 -0.014220092768457825
leaf_weight=413.6196616473535 1487.7915771165863 1142.6755435466766 792.45760401245207 2936.4062370955944 1214.8007715158165 756.58922369405627 1899.922462024726 2940.0197525322437 1065.1086935885251 8981.4328573644161 866.1063480079174 1507.0803375244141 734.97500806301832 3717.4379267655313 2319.8915908476338
leaf_count=1732 14920 6717 7492 50851 8735 4860 20278 52082 10207 68277 10551 8017 5516 24197 27327
internal_value=0 0.0116123 0.00326647 -0.0244482 0.00826179 0.0292633 -0.0196962 -0.0358384 0.00525083 0.00807622 -0.0100959 0.0263665 0.0206691 0.0159287 -0.00398806
internal_weight=0 22226.1 15096.4 10550.2 12404 7129.7 2692.38 5876.43 11261.3 10196.2 4673.79 6716.08 5209 4452.41 3807.68
internal_count=321759 166028 121706 155731 93936 44322 27770 102933 87219 77012 52798 42590 34573 29713 42247
is_linear=0
shrinkage=0.134074


Tree=45
num_leaves=16
num_cat=0
split_feature=35 35 38 38 35 37 38 35 47 36 1 40 38 47 38
split_gain=506.475 145.018 121.695 91.0396 61.215 60.5627 56.8932 46.503 44.4417 42.5479 37.0215 33.4537 32.898 30.6635 29.8882
threshold=6.2355000000000018 6.6763333333333348 6.1508333333333347 6.1708333333333352 5.9208333333333352 5.2841666666666685 6.7979166666666684 5.8670833333333343 -1047.0499999999997 5.8277500000000009 82534.500000000015 71.875000000000028 6.6708333333333352 -1083.9499999999996 5.7687500000000016
decision_type=2 2 2 2 2 2 2 2 2 2 2 2 2 2 2
left_child=2 3 7 11 -4 -5 10 -1 9 -6 -7 -2 -3 -9 -13
right_child=1 12 4 5 8 6 -8 13 -10 -11 -12 14 -14 -15 -16
leaf_value=0.051929720554516931 0.035723297111491463 -0.038217673463881621 0.025554532201270415 0.024085758538462246 0.022109371337937184 -0.0065779354346789266 -0.057299644683844415 0.030210983524710189 -0.018705641264071239 -0.0018249624823435675 -0.02456809929566638 0.030474932552727992 -0.077055960797590028 0.0040422983027014253 -0.0047586608952799678
leaf_weight=1489.5899432269835 600.25138239562511 2142.1815323829651 2486.2073609828949 579.41674673557281 2064.2479226810392 3425.6503038182855 699.16217970848083 3887.1101150773466 1578.2365532964468 3753.3580609487835 5229.3977359756827 518.70008917152882 492.02909708023071 1029.4868392683566 2575.754337310791
leaf_count=7017 4622 43366 17337 6876 15769 34180 10901 22181 15047 29328 64530 3841 17346 6846 22572
internal_value=0 -0.0167417 0.0167054 -0.0111616 0.00735704 -0.0178474 -0.0204604 0.0311033 0.00122037 0.00664943 -0.0174634 0.00678132 -0.045548 0.0247583 0.00111712
internal_weight=0 16262.5 16288.2 13628.3 9882.05 9933.63 9354.21 6406.19 7395.84 5817.61 8655.05 3694.71 2634.21 4916.6 3094.45
internal_count=321759 208234 113525 147522 77481 116487 109611 36044 60144 45097 98710 31035 60712 29027 26413
is_linear=0
shrinkage=0.134074


Tree=46
num_leaves=16
num_cat=0
split_feature=35 35 38 38 43 38 37 47 35 37 38 47 36 37 37
split_gain=487.201 185.128 93.2519 92.6456 47.3588 47.1606 42.4141 82.6872 42.3261 38.5575 33.8233 33.4773 34.8334 31.4574 28.931
threshold=6.1555000000000017 6.5508333333333342 6.2255000000000011 6.3608333333333347 15.340635080645162 5.8558333333333339 5.4612500000000015 -1302.9499999999996 5.7370833333333353 5.4441666666666686 6.2010000000000014 -1094.7499999999998 5.5970833333333347 5.5970833333333347 5.5212500000000011
decision_type=2 2 2 2 2 2 2 2 2 2 2 2 2 2 2
left_child=3 2 -2 5 -3 -1 -4 -8 -7 -5 -6 14 -13 -9 -10
right_child=1 4 6 9 10 8 7 13 11 -11 -12 12 -14 -15 -16
